net 
{
    node_size = (76 36);
}

node HistComplex
{
    label = "HistComplex";
    position = (66 126);
    states = ("Status1"  "Status2");
}

node XNode
{
    label = "XNode";
    position = (162 190);
    states = ("Status0"  "Status1"  "Status2");
}

node MNode
{
    label = "MNode";
    position = (258 190);
    states = ("Status0"  "Status1"  "Status2"  "Status3"  "Status4" 
     "Status5");
}

node SpotDistribution
{
    label = "SpotDistribution";
    position = (354 190);
    states = ("C"  "I"  "O"  "X");
}

node LargestSpotSize
{
    label = "LargestSpotSize";
    position = (450 190);
    states = ("A"  "H"  "K"  "R"  "S"  "X");
}

node Activity
{
    label = "Activity";
    position = (450 126);
    states = ("Status1"  "Status2");
}

node SolarFlareType
{
    label = "SolarFlareType";
    position = (714 176);
    states = ("B"  "C"  "D"  "E"  "F"  "H");
}

node Evolution
{
    label = "Evolution";
    position = (731 -18);
    states = ("Status1"  "Status2"  "Status3");
}

node CNode
{
    label = "CNode";
    position = (354 126);
    states = ("Status0"  "Status1"  "Status2"  "Status3"  "Status4" 
     "Status5"  "Status6"  "Status8");
}

node PrevStatus24Hour
{
    label = "PrevStatus24Hour";
    position = (450 62);
    states = ("Status1"  "Status2"  "Status3");
}

node BecomeHist
{
    label = "BecomeHist";
    position = (450 -2);
    states = ("Status1"  "Status2");
}

node Area
{
    label = "Area";
    position = (546 190);
    states = ("Status1"  "Status2");
}

potential (HistComplex |)
{
    data = (0.59035326 0.40964674);
}

potential (XNode | HistComplex)
{
    data = ((0.99846744 0.00076628 0.00076628)
        (0.97130243 0.02097130 0.00772627));
}

potential (MNode | XNode)
{
    data = ((0.95902015 0.02907509 0.00572344 0.00297619 0.00297619 
        0.00022894)
        (0.30952381 0.30952381 0.02380952 0.02380952 0.02380952 
        0.30952381)
        (0.05555556 0.05555556 0.05555556 0.72222221 0.05555556 
        0.05555556));
}

potential (SpotDistribution | MNode XNode)
{
    data = (((0.02610873 0.20922747 0.45672389 0.30793991)
        (0.41666667 0.41666667 0.08333333 0.08333333)
        (0.25000000 0.25000000 0.25000000 0.25000000))
        ((0.19318182 0.42045455 0.32954545 0.05681818)
        (0.75000001 0.08333333 0.08333333 0.08333333)
        (0.25000000 0.25000000 0.25000000 0.25000000))
        ((0.25000000 0.45000000 0.25000000 0.05000000)
        (0.25000000 0.25000000 0.25000000 0.25000000)
        (0.25000000 0.25000000 0.25000000 0.25000000))
        ((0.08333333 0.75000001 0.08333333 0.08333333)
        (0.25000000 0.25000000 0.25000000 0.25000000)
        (0.75000001 0.08333333 0.08333333 0.08333333))
        ((0.08333333 0.75000001 0.08333333 0.08333333)
        (0.25000000 0.25000000 0.25000000 0.25000000)
        (0.25000000 0.25000000 0.25000000 0.25000000))
        ((0.25000000 0.25000000 0.25000000 0.25000000)
        (0.75000001 0.08333333 0.08333333 0.08333333)
        (0.25000000 0.25000000 0.25000000 0.25000000)));
}

potential (LargestSpotSize | SpotDistribution)
{
    data = ((0.26344086 0.03763441 0.65053764 0.03763441 0.00537634 
        0.00537634)
        (0.50408998 0.01942740 0.09918200 0.15439673 0.16666667 
        0.05623722)
        (0.12855691 0.03404472 0.00050813 0.27794715 0.30843496 
        0.25050813)
        (0.09293395 0.02380952 0.00537634 0.20353303 0.67357911 
        0.00076805));
}

potential (Activity | SpotDistribution)
{
    data = ((0.24193548 0.75806452)
        (0.63496933 0.36503067)
        (0.89176829 0.10823171)
        (0.94700461 0.05299539));
}

potential (SolarFlareType | LargestSpotSize)
{
    data = ((0.00108932 0.09912854 0.40631808 0.26906318 0.09259259 
        0.13180828)
        (0.00793651 0.05555556 0.29365079 0.29365079 0.10317460 
        0.24603175)
        (0.00438596 0.00438596 0.32017544 0.39912281 0.24122807 
        0.03070175)
        (0.00102881 0.42695473 0.27263374 0.01954733 0.00720165 
        0.27263374)
        (0.00787879 0.21515152 0.17878788 0.05515152 0.01151515 
        0.53151514)
        (0.99094205 0.00181159 0.00181159 0.00181159 0.00181159 
        0.00181159));
}

potential (Evolution | SolarFlareType)
{
    data = ((0.06974638 0.44882246 0.48143116)
        (0.06974638 0.44882246 0.48143116)
        (0.06974638 0.44882246 0.48143116)
        (0.06974638 0.44882246 0.48143116)
        (0.06974638 0.44882246 0.48143116)
        (0.06974638 0.44882246 0.48143116));
}

potential (CNode | MNode)
{
    data = ((0.82186164 0.10859486 0.02870899 0.01729672 0.00731098 
        0.00588445 0.00731098 0.00303138)
        (0.50520834 0.17187500 0.13020833 0.08854167 0.04687500 
        0.04687500 0.00520833 0.00520833)
        (0.42500000 0.02500000 0.42500000 0.02500000 0.02500000 
        0.02500000 0.02500000 0.02500000)
        (0.42500000 0.42500000 0.02500000 0.02500000 0.02500000 
        0.02500000 0.02500000 0.02500000)
        (0.04166667 0.04166667 0.04166667 0.04166667 0.70833332 
        0.04166667 0.04166667 0.04166667)
        (0.70833332 0.04166667 0.04166667 0.04166667 0.04166667 
        0.04166667 0.04166667 0.04166667));
}

potential (PrevStatus24Hour | CNode)
{
    data = ((0.97703081 0.01064426 0.01232493)
        (0.90763052 0.04016064 0.05220884)
        (0.82051282 0.05128205 0.12820513)
        (0.95555556 0.02222222 0.02222222)
        (0.81481481 0.14814815 0.03703704)
        (0.72222222 0.05555556 0.22222222)
        (0.22222222 0.05555556 0.72222222)
        (0.77777778 0.11111111 0.11111111));
}

potential (BecomeHist | SpotDistribution)
{
    data = ((0.01612903 0.98387097)
        (0.00306748 0.99693252)
        (0.00152439 0.99847561)
        (0.43548387 0.56451613));
}

potential (Area | LargestSpotSize)
{
    data = ((0.98366013 0.01633987)
        (0.97619048 0.02380952)
        (0.40789474 0.59210526)
        (0.99074074 0.00925926)
        (0.99818182 0.00181818)
        (0.99456522 0.00543478));
}
