net 
{
    node_size = (76 36);
}

node HistComplex
{
    label = "HistComplex";
    position = (46 104);
    states = ("Status1"  "Status2");
}

node BecomeHist
{
    label = "BecomeHist";
    position = (46 40);
    states = ("Status1"  "Status2");
}

node MNode
{
    label = "MNode";
    position = (46 -24);
    states = ("Status0"  "Status1"  "Status2"  "Status3"  "Status4" 
     "Status5");
}

node Area
{
    label = "Area";
    position = (142 40);
    states = ("Status1"  "Status2");
}

node SpotDistribution
{
    label = "SpotDistribution";
    position = (238 104);
    states = ("C"  "I"  "O"  "X");
}

node CNode
{
    label = "CNode";
    position = (142 -24);
    states = ("Status0"  "Status1"  "Status2"  "Status3"  "Status4" 
     "Status5"  "Status6"  "Status8");
}

node PrevStatus24Hour
{
    label = "PrevStatus24Hour";
    position = (238 40);
    states = ("Status1"  "Status2"  "Status3");
}

node XNode
{
    label = "XNode";
    position = (334 40);
    states = ("Status0"  "Status1"  "Status2");
}

node SolarFlareType
{
    label = "SolarFlareType";
    position = (430 104);
    states = ("B"  "C"  "D"  "E"  "F"  "H");
}

node LargestSpotSize
{
    label = "LargestSpotSize";
    position = (526 104);
    states = ("A"  "H"  "K"  "R"  "S"  "X");
}

node Activity
{
    label = "Activity";
    position = (334 104);
    states = ("Status1"  "Status2");
}

node Evolution
{
    label = "Evolution";
    position = (142 104);
    states = ("Status1"  "Status2"  "Status3");
}

potential (HistComplex |)
{
    data = (0.57086614 0.42913386);
}

potential (BecomeHist |)
{
    data = (0.12992126 0.87007874);
}

potential (MNode |)
{
    data = (0.94794401 0.02930884 0.00831146 0.00831146 0.00306212 
        0.00306212);
}

potential (Area | HistComplex MNode)
{
    data = (((0.99763033 0.00236967)
        (0.90000000 0.10000000)
        (0.87500000 0.12500000)
        (0.50000000 0.50000000)
        (0.50000000 0.50000000)
        (0.50000000 0.50000000))
        ((0.94407895 0.05592105)
        (0.43750000 0.56250000)
        (0.50000000 0.50000000)
        (0.62500000 0.37500000)
        (0.75000000 0.25000000)
        (0.25000000 0.75000000)));
}

potential (SpotDistribution | HistComplex BecomeHist Area MNode)
{
    data = (((((0.00781250 0.00781250 0.00781250 0.97656250)
        (0.25000000 0.25000000 0.25000000 0.25000000)
        (0.25000000 0.25000000 0.25000000 0.25000000)
        (0.25000000 0.25000000 0.25000000 0.25000000)
        (0.25000000 0.25000000 0.25000000 0.25000000)
        (0.25000000 0.25000000 0.25000000 0.25000000))
        ((0.25000000 0.25000000 0.25000000 0.25000000)
        (0.25000000 0.25000000 0.25000000 0.25000000)
        (0.25000000 0.25000000 0.25000000 0.25000000)
        (0.25000000 0.25000000 0.25000000 0.25000000)
        (0.25000000 0.25000000 0.25000000 0.25000000)
        (0.25000000 0.25000000 0.25000000 0.25000000)))
        (((0.00138889 0.13472222 0.57916667 0.28472222)
        (0.45000000 0.05000000 0.45000000 0.05000000)
        (0.06250000 0.56250000 0.31250000 0.06250000)
        (0.25000000 0.25000000 0.25000000 0.25000000)
        (0.25000000 0.25000000 0.25000000 0.25000000)
        (0.25000000 0.25000000 0.25000000 0.25000000))
        ((0.25000000 0.25000000 0.25000000 0.25000000)
        (0.25000000 0.25000000 0.25000000 0.25000000)
        (0.25000000 0.25000000 0.25000000 0.25000000)
        (0.25000000 0.25000000 0.25000000 0.25000000)
        (0.25000000 0.25000000 0.25000000 0.25000000)
        (0.25000000 0.25000000 0.25000000 0.25000000))))
        ((((0.01315789 0.01315789 0.01315789 0.96052632)
        (0.25000000 0.25000000 0.25000000 0.25000000)
        (0.25000000 0.25000000 0.25000000 0.25000000)
        (0.25000000 0.25000000 0.25000000 0.25000000)
        (0.25000000 0.25000000 0.25000000 0.25000000)
        (0.25000000 0.25000000 0.25000000 0.25000000))
        ((0.25000000 0.25000000 0.25000000 0.25000000)
        (0.25000000 0.25000000 0.25000000 0.25000000)
        (0.25000000 0.25000000 0.25000000 0.25000000)
        (0.25000000 0.25000000 0.25000000 0.25000000)
        (0.25000000 0.25000000 0.25000000 0.25000000)
        (0.25000000 0.25000000 0.25000000 0.25000000)))
        (((0.04960317 0.43849206 0.37500000 0.13690476)
        (0.06250000 0.81250000 0.06250000 0.06250000)
        (0.25000000 0.25000000 0.25000000 0.25000000)
        (0.08333333 0.75000000 0.08333333 0.08333333)
        (0.12500000 0.62500000 0.12500000 0.12500000)
        (0.25000000 0.25000000 0.25000000 0.25000000))
        ((0.91666667 0.02777778 0.02777778 0.02777778)
        (0.65000000 0.25000000 0.05000000 0.05000000)
        (0.25000000 0.25000000 0.25000000 0.25000000)
        (0.62500000 0.12500000 0.12500000 0.12500000)
        (0.25000000 0.25000000 0.25000000 0.25000000)
        (0.62500000 0.12500000 0.12500000 0.12500000)))));
}

potential (CNode | MNode)
{
    data = ((0.81526243 0.09979282 0.03625691 0.00863260 0.01139503 
        0.01139503 0.01139503 0.00587017)
        (0.34375000 0.17708333 0.17708333 0.17708333 0.01041667 
        0.09375000 0.01041667 0.01041667)
        (0.53125000 0.03125000 0.28125000 0.03125000 0.03125000 
        0.03125000 0.03125000 0.03125000)
        (0.53125000 0.28125000 0.03125000 0.03125000 0.03125000 
        0.03125000 0.03125000 0.03125000)
        (0.06250000 0.06250000 0.06250000 0.06250000 0.56250000 
        0.06250000 0.06250000 0.06250000)
        (0.56250000 0.06250000 0.06250000 0.06250000 0.06250000 
        0.06250000 0.06250000 0.06250000));
}

potential (PrevStatus24Hour | CNode)
{
    data = ((0.97814208 0.01092896 0.01092896)
        (0.93333333 0.03333333 0.03333333)
        (0.84313725 0.07843137 0.07843137)
        (0.88888889 0.05555556 0.05555556)
        (0.88888889 0.05555556 0.05555556)
        (0.72222222 0.05555556 0.22222222)
        (0.26666667 0.06666667 0.66666667)
        (0.77777778 0.11111111 0.11111111));
}

potential (XNode | PrevStatus24Hour)
{
    data = ((0.99000908 0.00635786 0.00363306)
        (0.88888889 0.05555556 0.05555556)
        (0.83333333 0.13333333 0.03333333));
}

potential (SolarFlareType | SpotDistribution XNode)
{
    data = (((0.00877193 0.00877193 0.06140351 0.58771930 0.32456140 
        0.00877193)
        (0.05555556 0.05555556 0.05555556 0.38888889 0.38888889 
        0.05555556)
        (0.08333333 0.08333333 0.58333333 0.08333333 0.08333333 
        0.08333333))
        ((0.07007576 0.07007576 0.55871212 0.19507576 0.10416667 
        0.00189394)
        (0.08333333 0.08333333 0.08333333 0.08333333 0.58333333 
        0.08333333)
        (0.16666667 0.16666667 0.16666667 0.16666667 0.16666667 
        0.16666667))
        ((0.27849462 0.38172043 0.25913978 0.07204301 0.00752688 
        0.00107527)
        (0.16666667 0.16666667 0.16666667 0.16666667 0.16666667 
        0.16666667)
        (0.16666667 0.16666667 0.16666667 0.16666667 0.16666667 
        0.16666667))
        ((0.00141243 0.00141243 0.00141243 0.00141243 0.00141243 
        0.99293785)
        (0.16666667 0.16666667 0.16666667 0.16666667 0.16666667 
        0.16666667)
        (0.16666667 0.16666667 0.16666667 0.16666667 0.16666667 
        0.16666667)));
}

potential (LargestSpotSize | SpotDistribution SolarFlareType)
{
    data = (((0.16666667 0.16666667 0.16666667 0.16666667 0.16666667 
        0.16666667)
        (0.16666667 0.16666667 0.16666667 0.16666667 0.16666667 
        0.16666667)
        (0.38888889 0.05555556 0.38888889 0.05555556 0.05555556 
        0.05555556)
        (0.32051282 0.08974359 0.55128205 0.01282051 0.01282051 
        0.01282051)
        (0.14583333 0.02083333 0.77083333 0.02083333 0.02083333 
        0.02083333)
        (0.16666667 0.16666667 0.16666667 0.16666667 0.16666667 
        0.16666667))
        ((0.02380952 0.02380952 0.02380952 0.02380952 0.02380952 
        0.88095238)
        (0.16666667 0.02380952 0.02380952 0.45238095 0.30952381 
        0.02380952)
        (0.46333333 0.00333333 0.16333333 0.18333333 0.18333333 
        0.00333333)
        (0.62037037 0.06481481 0.12037037 0.00925926 0.17592593 
        0.00925926)
        (0.74242424 0.01515152 0.10606061 0.01515152 0.10606061 
        0.01515152)
        (0.16666667 0.16666667 0.16666667 0.16666667 0.16666667 
        0.16666667))
        ((0.00378788 0.00378788 0.00378788 0.00378788 0.02651515 
        0.95833333)
        (0.10277778 0.00277778 0.00277778 0.48611111 0.40277778 
        0.00277778)
        (0.15040650 0.07723577 0.00406504 0.36991870 0.39430894 
        0.00406504)
        (0.43055556 0.01388889 0.01388889 0.09722222 0.43055556 
        0.01388889)
        (0.08333333 0.58333333 0.08333333 0.08333333 0.08333333 
        0.08333333)
        (0.16666667 0.16666667 0.16666667 0.16666667 0.16666667 
        0.16666667))
        ((0.16666667 0.16666667 0.16666667 0.16666667 0.16666667 
        0.16666667)
        (0.16666667 0.16666667 0.16666667 0.16666667 0.16666667 
        0.16666667)
        (0.16666667 0.16666667 0.16666667 0.16666667 0.16666667 
        0.16666667)
        (0.16666667 0.16666667 0.16666667 0.16666667 0.16666667 
        0.16666667)
        (0.16666667 0.16666667 0.16666667 0.16666667 0.16666667 
        0.16666667)
        (0.07768362 0.04378531 0.00988701 0.19632768 0.67090395 
        0.00141243)));
}

potential (Activity | PrevStatus24Hour HistComplex)
{
    data = (((0.90972222 0.09027778)
        (0.72039474 0.27960526))
        ((0.16666667 0.83333333)
        (0.12500000 0.87500000))
        ((0.50000000 0.50000000)
        (0.05000000 0.95000000)));
}

potential (Evolution | MNode)
{
    data = ((0.08931860 0.45119705 0.45948435)
        (0.02777778 0.11111111 0.86111111)
        (0.08333333 0.08333333 0.83333333)
        (0.08333333 0.58333333 0.33333333)
        (0.16666667 0.16666667 0.66666667)
        (0.16666667 0.16666667 0.66666667));
}
