net 
{
    node_size = (76 36);
}

node Evolution
{
    label = "Evolution";
    position = (46 -24);
    states = ("Status1"  "Status2"  "Status3");
}

node SpotDistribution
{
    label = "SpotDistribution";
    position = (46 40);
    states = ("C"  "I"  "O"  "X");
}

node Activity
{
    label = "Activity";
    position = (142 40);
    states = ("Status1"  "Status2");
}

node PrevStatus24Hour
{
    label = "PrevStatus24Hour";
    position = (238 40);
    states = ("Status1"  "Status2"  "Status3");
}

node MNode
{
    label = "MNode";
    position = (334 40);
    states = ("Status0"  "Status1"  "Status2"  "Status3"  "Status4" 
     "Status5");
}

node XNode
{
    label = "XNode";
    position = (430 40);
    states = ("Status0"  "Status1"  "Status2");
}

node SolarFlareType
{
    label = "SolarFlareType";
    position = (526 40);
    states = ("B"  "C"  "D"  "E"  "F"  "H");
}

node LargestSpotSize
{
    label = "LargestSpotSize";
    position = (622 40);
    states = ("A"  "H"  "K"  "R"  "S"  "X");
}

node HistComplex
{
    label = "HistComplex";
    position = (718 40);
    states = ("Status1"  "Status2");
}

node BecomeHist
{
    label = "BecomeHist";
    position = (622 -24);
    states = ("Status1"  "Status2");
}

node Area
{
    label = "Area";
    position = (718 -24);
    states = ("Status1"  "Status2");
}

node CNode
{
    label = "CNode";
    position = (814 40);
    states = ("Status0"  "Status1"  "Status2"  "Status3"  "Status4" 
     "Status5"  "Status6"  "Status8");
}

potential (Evolution |)
{
    data = (0.05336833 0.44969379 0.49693788);
}

potential (SpotDistribution |)
{
    data = (0.04002625 0.21325459 0.47572178 0.27099738);
}

potential (Activity | SpotDistribution)
{
    data = ((0.21875000 0.78125000)
        (0.60365854 0.39634146)
        (0.90384615 0.09615385)
        (0.96634615 0.03365385));
}

potential (PrevStatus24Hour | Activity)
{
    data = ((0.99158780 0.00420610 0.00420610)
        (0.69743590 0.09743590 0.20512821));
}

potential (MNode | PrevStatus24Hour)
{
    data = ((0.94490741 0.03657407 0.00324074 0.00879630 0.00601852 
        0.00046296)
        (0.77083333 0.14583333 0.02083333 0.02083333 0.02083333 
        0.02083333)
        (0.74444444 0.01111111 0.07777778 0.01111111 0.01111111 
        0.14444444));
}

potential (XNode | Evolution MNode)
{
    data = (((0.96825397 0.01587302 0.01587302)
        (0.33333333 0.33333333 0.33333333)
        (0.33333333 0.33333333 0.33333333)
        (0.33333333 0.33333333 0.33333333)
        (0.33333333 0.33333333 0.33333333)
        (0.33333333 0.33333333 0.33333333))
        ((0.99588477 0.00205761 0.00205761)
        (0.70370370 0.25925926 0.03703704)
        (0.66666667 0.16666667 0.16666667)
        (0.66666667 0.16666667 0.16666667)
        (0.33333333 0.33333333 0.33333333)
        (0.33333333 0.33333333 0.33333333))
        ((0.99058380 0.00753296 0.00188324)
        (0.90476190 0.04761905 0.04761905)
        (0.66666667 0.16666667 0.16666667)
        (0.11111111 0.11111111 0.77777778)
        (0.77777778 0.11111111 0.11111111)
        (0.11111111 0.77777778 0.11111111)));
}

potential (SolarFlareType | SpotDistribution XNode)
{
    data = (((0.01851852 0.01851852 0.12962963 0.68518519 0.12962963 
        0.01851852)
        (0.02777778 0.02777778 0.02777778 0.52777778 0.36111111 
        0.02777778)
        (0.05555556 0.05555556 0.72222222 0.05555556 0.05555556 
        0.05555556))
        ((0.03861789 0.12398374 0.47764228 0.25813008 0.09959350 
        0.00203252)
        (0.16666667 0.16666667 0.16666667 0.16666667 0.16666667 
        0.16666667)
        (0.16666667 0.16666667 0.16666667 0.16666667 0.16666667 
        0.16666667))
        ((0.23717949 0.39652015 0.26465201 0.08882784 0.01190476 
        0.00091575)
        (0.16666667 0.16666667 0.16666667 0.16666667 0.16666667 
        0.16666667)
        (0.16666667 0.16666667 0.16666667 0.16666667 0.16666667 
        0.16666667))
        ((0.00160256 0.00160256 0.00160256 0.00160256 0.00160256 
        0.99198718)
        (0.16666667 0.16666667 0.16666667 0.16666667 0.16666667 
        0.16666667)
        (0.16666667 0.16666667 0.16666667 0.16666667 0.16666667 
        0.16666667)));
}

potential (LargestSpotSize | XNode SolarFlareType)
{
    data = (((0.00354610 0.00354610 0.00354610 0.00354610 0.02482270 
        0.96099291)
        (0.09839357 0.01405622 0.00200803 0.45983936 0.42369478 
        0.00200803)
        (0.38389513 0.03558052 0.03558052 0.24906367 0.29400749 
        0.00187266)
        (0.57196970 0.09469697 0.11742424 0.04924242 0.16287879 
        0.00378788)
        (0.43055556 0.09722222 0.18055556 0.09722222 0.18055556 
        0.01388889)
        (0.11698718 0.01121795 0.00160256 0.21314103 0.65544872 
        0.00160256))
        ((0.16666667 0.16666667 0.16666667 0.16666667 0.16666667 
        0.16666667)
        (0.16666667 0.16666667 0.16666667 0.16666667 0.16666667 
        0.16666667)
        (0.16666667 0.16666667 0.16666667 0.16666667 0.16666667 
        0.16666667)
        (0.04166667 0.04166667 0.79166667 0.04166667 0.04166667 
        0.04166667)
        (0.05555556 0.05555556 0.72222222 0.05555556 0.05555556 
        0.05555556)
        (0.16666667 0.16666667 0.16666667 0.16666667 0.16666667 
        0.16666667))
        ((0.16666667 0.16666667 0.16666667 0.16666667 0.16666667 
        0.16666667)
        (0.16666667 0.16666667 0.16666667 0.16666667 0.16666667 
        0.16666667)
        (0.05555556 0.05555556 0.72222222 0.05555556 0.05555556 
        0.05555556)
        (0.16666667 0.16666667 0.16666667 0.16666667 0.16666667 
        0.16666667)
        (0.16666667 0.16666667 0.16666667 0.16666667 0.16666667 
        0.16666667)
        (0.16666667 0.16666667 0.16666667 0.16666667 0.16666667 
        0.16666667)));
}

potential (HistComplex | LargestSpotSize)
{
    data = ((0.32352941 0.67647059)
        (0.22727273 0.77272727)
        (0.02777778 0.97222222)
        (0.80813953 0.19186047)
        (0.68214286 0.31785714)
        (0.83695652 0.16304348));
}

potential (BecomeHist | XNode SolarFlareType)
{
    data = (((0.01063830 0.98936170)
        (0.00602410 0.99397590)
        (0.00561798 0.99438202)
        (0.01136364 0.98863636)
        (0.04166667 0.95833333)
        (0.46634615 0.53365385))
        ((0.50000000 0.50000000)
        (0.50000000 0.50000000)
        (0.50000000 0.50000000)
        (0.12500000 0.87500000)
        (0.16666667 0.83333333)
        (0.50000000 0.50000000))
        ((0.50000000 0.50000000)
        (0.50000000 0.50000000)
        (0.16666667 0.83333333)
        (0.50000000 0.50000000)
        (0.50000000 0.50000000)
        (0.50000000 0.50000000)));
}

potential (Area | LargestSpotSize XNode)
{
    data = (((0.98235294 0.01764706)
        (0.50000000 0.50000000)
        (0.50000000 0.50000000))
        ((0.95454545 0.04545455)
        (0.50000000 0.50000000)
        (0.50000000 0.50000000))
        ((0.31818182 0.68181818)
        (0.08333333 0.91666667)
        (0.16666667 0.83333333))
        ((0.98255814 0.01744186)
        (0.50000000 0.50000000)
        (0.50000000 0.50000000))
        ((0.99642857 0.00357143)
        (0.50000000 0.50000000)
        (0.50000000 0.50000000))
        ((0.98913043 0.01086957)
        (0.50000000 0.50000000)
        (0.50000000 0.50000000)));
}

potential (CNode | HistComplex MNode)
{
    data = (((0.85011062 0.11559735 0.01825221 0.00497788 0.00055310 
        0.00497788 0.00055310 0.00497788)
        (0.52083333 0.02083333 0.18750000 0.18750000 0.02083333 
        0.02083333 0.02083333 0.02083333)
        (0.56250000 0.06250000 0.06250000 0.06250000 0.06250000 
        0.06250000 0.06250000 0.06250000)
        (0.12500000 0.12500000 0.12500000 0.12500000 0.12500000 
        0.12500000 0.12500000 0.12500000)
        (0.12500000 0.12500000 0.12500000 0.12500000 0.12500000 
        0.12500000 0.12500000 0.12500000)
        (0.12500000 0.12500000 0.12500000 0.12500000 0.12500000 
        0.12500000 0.12500000 0.12500000))
        ((0.74530075 0.12124060 0.03853383 0.06109023 0.00845865 
        0.00093985 0.02349624 0.00093985)
        (0.61250000 0.21250000 0.01250000 0.01250000 0.11250000 
        0.01250000 0.01250000 0.01250000)
        (0.06250000 0.06250000 0.56250000 0.06250000 0.06250000 
        0.06250000 0.06250000 0.06250000)
        (0.28125000 0.53125000 0.03125000 0.03125000 0.03125000 
        0.03125000 0.03125000 0.03125000)
        (0.04166667 0.04166667 0.04166667 0.04166667 0.70833333 
        0.04166667 0.04166667 0.04166667)
        (0.70833333 0.04166667 0.04166667 0.04166667 0.04166667 
        0.04166667 0.04166667 0.04166667)));
}
