net 
{
    node_size = (76 36);
}

node XNode
{
    label = "XNode";
    position = (66 135);
    states = ("Status0"  "Status1"  "Status2");
}

node BecomeHist
{
    label = "BecomeHist";
    position = (66 199);
    states = ("Status1"  "Status2");
}

node MNode
{
    label = "MNode";
    position = (162 263);
    states = ("Status0"  "Status1"  "Status2"  "Status3"  "Status4" 
     "Status5");
}

node Area
{
    label = "Area";
    position = (258 263);
    states = ("Status1"  "Status2");
}

node CNode
{
    label = "CNode";
    position = (258 199);
    states = ("Status0"  "Status1"  "Status2"  "Status3"  "Status4" 
     "Status5"  "Status6"  "Status8");
}

node SolarFlareType
{
    label = "SolarFlareType";
    position = (354 75);
    states = ("B"  "C"  "D"  "E"  "F"  "H");
}

node SpotDistribution
{
    label = "SpotDistribution";
    position = (450 263);
    states = ("C"  "I"  "O"  "X");
}

node LargestSpotSize
{
    label = "LargestSpotSize";
    position = (546 263);
    states = ("A"  "H"  "K"  "R"  "S"  "X");
}

node Activity
{
    label = "Activity";
    position = (546 199);
    states = ("Status1"  "Status2");
}

node Evolution
{
    label = "Evolution";
    position = (595 -18);
    states = ("Status1"  "Status2"  "Status3");
}

node PrevStatus24Hour
{
    label = "PrevStatus24Hour";
    position = (642 263);
    states = ("Status1"  "Status2"  "Status3");
}

node HistComplex
{
    label = "HistComplex";
    position = (450 199);
    states = ("Status1"  "Status2");
}

potential (XNode |)
{
    data = (0.98822464 0.00860507 0.00317029);
}

potential (BecomeHist |)
{
    data = (0.12839674 0.87160326);
}

potential (MNode | XNode)
{
    data = ((0.95902015 0.02907509 0.00572344 0.00297619 0.00297619 
        0.00022894)
        (0.30952381 0.30952381 0.02380952 0.02380952 0.02380952 
        0.30952381)
        (0.05555556 0.05555556 0.05555556 0.72222221 0.05555556 
        0.05555556));
}

potential (Area | MNode)
{
    data = ((0.97788873 0.02211127)
        (0.77083333 0.22916667)
        (0.70000000 0.30000000)
        (0.50000000 0.50000000)
        (0.83333333 0.16666667)
        (0.16666667 0.83333333));
}

potential (CNode | MNode)
{
    data = ((0.82186164 0.10859486 0.02870899 0.01729672 0.00731098 
        0.00588445 0.00731098 0.00303138)
        (0.50520834 0.17187500 0.13020833 0.08854167 0.04687500 
        0.04687500 0.00520833 0.00520833)
        (0.42500000 0.02500000 0.42500000 0.02500000 0.02500000 
        0.02500000 0.02500000 0.02500000)
        (0.42500000 0.42500000 0.02500000 0.02500000 0.02500000 
        0.02500000 0.02500000 0.02500000)
        (0.04166667 0.04166667 0.04166667 0.04166667 0.70833332 
        0.04166667 0.04166667 0.04166667)
        (0.70833332 0.04166667 0.04166667 0.04166667 0.04166667 
        0.04166667 0.04166667 0.04166667));
}

potential (SolarFlareType | BecomeHist Area CNode)
{
    data = ((((0.00185185 0.00185185 0.00185185 0.00185185 0.00185185 
        0.99074075)
        (0.03333333 0.03333333 0.03333333 0.03333333 0.03333333 
        0.83333335)
        (0.08333333 0.08333333 0.08333333 0.08333333 0.08333333 
        0.58333334)
        (0.16666667 0.16666667 0.16666667 0.16666667 0.16666667 
        0.16666667)
        (0.16666667 0.16666667 0.16666667 0.16666667 0.16666667 
        0.16666667)
        (0.16666667 0.16666667 0.16666667 0.16666667 0.16666667 
        0.16666667)
        (0.16666667 0.16666667 0.16666667 0.16666667 0.16666667 
        0.16666667)
        (0.16666667 0.16666667 0.16666667 0.16666667 0.16666667 
        0.16666667))
        ((0.16666667 0.16666667 0.16666667 0.16666667 0.16666667 
        0.16666667)
        (0.16666667 0.16666667 0.16666667 0.16666667 0.16666667 
        0.16666667)
        (0.16666667 0.16666667 0.16666667 0.16666667 0.16666667 
        0.16666667)
        (0.16666667 0.16666667 0.16666667 0.16666667 0.16666667 
        0.16666667)
        (0.16666667 0.16666667 0.16666667 0.16666667 0.16666667 
        0.16666667)
        (0.16666667 0.16666667 0.16666667 0.16666667 0.16666667 
        0.16666667)
        (0.16666667 0.16666667 0.16666667 0.16666667 0.16666667 
        0.16666667)
        (0.16666667 0.16666667 0.16666667 0.16666667 0.16666667 
        0.16666667)))
        (((0.17645074 0.24932524 0.25742240 0.06511471 0.02058030 
        0.23110661)
        (0.08447489 0.20776256 0.39954337 0.13926941 0.07077626 
        0.09817352)
        (0.00757576 0.09848485 0.50757576 0.18939394 0.14393939 
        0.05303030)
        (0.01190476 0.15476190 0.22619048 0.58333334 0.01190476 
        0.01190476)
        (0.02083333 0.02083333 0.14583333 0.52083334 0.27083334 
        0.02083333)
        (0.02777778 0.36111111 0.02777778 0.52777777 0.02777778 
        0.02777778)
        (0.04166667 0.04166667 0.04166667 0.79166665 0.04166667 
        0.04166667)
        (0.05555556 0.05555556 0.05555556 0.72222221 0.05555556 
        0.05555556))
        ((0.01282051 0.01282051 0.01282051 0.47435898 0.47435898 
        0.01282051)
        (0.02380952 0.02380952 0.30952381 0.30952381 0.30952381 
        0.02380952)
        (0.04166667 0.04166667 0.04166667 0.79166665 0.04166667 
        0.04166667)
        (0.08333333 0.08333333 0.08333333 0.08333333 0.58333334 
        0.08333333)
        (0.08333333 0.08333333 0.08333333 0.58333334 0.08333333 
        0.08333333)
        (0.16666667 0.16666667 0.16666667 0.16666667 0.16666667 
        0.16666667)
        (0.05555556 0.05555556 0.05555556 0.72222221 0.05555556 
        0.05555556)
        (0.16666667 0.16666667 0.16666667 0.16666667 0.16666667 
        0.16666667))));
}

potential (SpotDistribution | XNode SolarFlareType)
{
    data = (((0.00265957 0.09840426 0.89627660 0.00265957)
        (0.00172414 0.11206897 0.88448275 0.00172414)
        (0.01308140 0.48982558 0.49563953 0.00145349)
        (0.19551282 0.45192308 0.34935897 0.00320513)
        (0.23148148 0.63888889 0.12037037 0.00925926)
        (0.00115207 0.00115207 0.00115207 0.99654379))
        ((0.25000000 0.25000000 0.25000000 0.25000000)
        (0.25000000 0.25000000 0.25000000 0.25000000)
        (0.25000000 0.25000000 0.25000000 0.25000000)
        (0.81250000 0.06250000 0.06250000 0.06250000)
        (0.56250000 0.31250000 0.06250000 0.06250000)
        (0.25000000 0.25000000 0.25000000 0.25000000))
        ((0.25000000 0.25000000 0.25000000 0.25000000)
        (0.25000000 0.25000000 0.25000000 0.25000000)
        (0.75000001 0.08333333 0.08333333 0.08333333)
        (0.25000000 0.25000000 0.25000000 0.25000000)
        (0.25000000 0.25000000 0.25000000 0.25000000)
        (0.25000000 0.25000000 0.25000000 0.25000000)));
}

potential (LargestSpotSize | SpotDistribution SolarFlareType)
{
    data = (((0.16666667 0.16666667 0.16666667 0.16666667 0.16666667 
        0.16666667)
        (0.16666667 0.16666667 0.16666667 0.16666667 0.16666667 
        0.16666667)
        (0.43333334 0.03333333 0.43333334 0.03333333 0.03333333 
        0.03333333)
        (0.27192982 0.06140351 0.58771930 0.06140351 0.00877193 
        0.00877193)
        (0.12962963 0.01851852 0.79629629 0.01851852 0.01851852 
        0.01851852)
        (0.16666667 0.16666667 0.16666667 0.16666667 0.16666667 
        0.16666667))
        ((0.01666667 0.01666667 0.01666667 0.01666667 0.01666667 
        0.91666665)
        (0.18627451 0.00980392 0.00980392 0.48039216 0.30392157 
        0.00980392)
        (0.50784314 0.01372549 0.11960784 0.19019608 0.16666667 
        0.00196078)
        (0.64351851 0.06018519 0.11574074 0.00462963 0.17129630 
        0.00462963)
        (0.69298245 0.00877193 0.11403509 0.06140351 0.11403509 
        0.00877193)
        (0.16666667 0.16666667 0.16666667 0.16666667 0.16666667 
        0.16666667))
        ((0.00196078 0.00196078 0.00196078 0.00196078 0.02549020 
        0.96666668)
        (0.09431525 0.00904393 0.00129199 0.47416021 0.41989664 
        0.00129199)
        (0.19961240 0.06007752 0.00193798 0.32751938 0.40891473 
        0.00193798)
        (0.47023810 0.11309524 0.00595238 0.07738095 0.32738095 
        0.00595238)
        (0.04166667 0.54166666 0.04166667 0.04166667 0.29166666 
        0.04166667)
        (0.16666667 0.16666667 0.16666667 0.16666667 0.16666667 
        0.16666667))
        ((0.16666667 0.16666667 0.16666667 0.16666667 0.16666667 
        0.16666667)
        (0.16666667 0.16666667 0.16666667 0.16666667 0.16666667 
        0.16666667)
        (0.16666667 0.16666667 0.16666667 0.16666667 0.16666667 
        0.16666667)
        (0.16666667 0.16666667 0.16666667 0.16666667 0.16666667 
        0.16666667)
        (0.16666667 0.16666667 0.16666667 0.16666667 0.16666667 
        0.16666667)
        (0.09293395 0.02380952 0.00537634 0.20353303 0.67357911 
        0.00076805)));
}

potential (Activity | SpotDistribution)
{
    data = ((0.24193548 0.75806452)
        (0.63496933 0.36503067)
        (0.89176829 0.10823171)
        (0.94700461 0.05299539));
}

potential (Evolution | SolarFlareType)
{
    data = ((0.06974638 0.44882246 0.48143116)
        (0.06974638 0.44882246 0.48143116)
        (0.06974638 0.44882246 0.48143116)
        (0.06974638 0.44882246 0.48143116)
        (0.06974638 0.44882246 0.48143116)
        (0.06974638 0.44882246 0.48143116));
}

potential (PrevStatus24Hour | Activity BecomeHist MNode)
{
    data = ((((0.99283154 0.00358423 0.00358423)
        (0.33333333 0.33333333 0.33333333)
        (0.33333333 0.33333333 0.33333333)
        (0.33333333 0.33333333 0.33333333)
        (0.33333333 0.33333333 0.33333333)
        (0.33333333 0.33333333 0.33333333))
        ((0.99459094 0.00270453 0.00270453)
        (0.96491228 0.01754386 0.01754386)
        (0.83333334 0.08333333 0.08333333)
        (0.77777778 0.11111111 0.11111111)
        (0.33333333 0.33333333 0.33333333)
        (0.33333333 0.33333333 0.33333333)))
        (((0.77777778 0.11111111 0.11111111)
        (0.33333333 0.33333333 0.33333333)
        (0.33333333 0.33333333 0.33333333)
        (0.33333333 0.33333333 0.33333333)
        (0.33333333 0.33333333 0.33333333)
        (0.33333333 0.33333333 0.33333333))
        ((0.78550725 0.08115942 0.13333333)
        (0.72222222 0.22222222 0.05555556)
        (0.16666667 0.16666667 0.66666666)
        (0.77777778 0.11111111 0.11111111)
        (0.77777778 0.11111111 0.11111111)
        (0.11111111 0.11111111 0.77777778))));
}

potential (HistComplex | CNode SolarFlareType)
{
    data = (((0.84659091 0.15340909)
        (0.73790323 0.26209677)
        (0.47265625 0.52734375)
        (0.19230769 0.80769231)
        (0.08823529 0.91176471)
        (0.67892157 0.32107843))
        ((0.78571429 0.21428571)
        (0.71875000 0.28125000)
        (0.51562500 0.48437500)
        (0.03846154 0.96153846)
        (0.06250000 0.93750000)
        (0.87500000 0.12500000))
        ((0.50000000 0.50000000)
        (0.83333333 0.16666667)
        (0.45833333 0.54166667)
        (0.43750000 0.56250000)
        (0.12500000 0.87500000)
        (0.83333333 0.16666667))
        ((0.50000000 0.50000000)
        (0.83333333 0.16666667)
        (0.12500000 0.87500000)
        (0.27777778 0.72222222)
        (0.25000000 0.75000000)
        (0.50000000 0.50000000))
        ((0.50000000 0.50000000)
        (0.50000000 0.50000000)
        (0.25000000 0.75000000)
        (0.08333333 0.91666667)
        (0.16666667 0.83333333)
        (0.50000000 0.50000000))
        ((0.50000000 0.50000000)
        (0.83333333 0.16666667)
        (0.50000000 0.50000000)
        (0.12500000 0.87500000)
        (0.50000000 0.50000000)
        (0.50000000 0.50000000))
        ((0.50000000 0.50000000)
        (0.50000000 0.50000000)
        (0.50000000 0.50000000)
        (0.25000000 0.75000000)
        (0.50000000 0.50000000)
        (0.50000000 0.50000000))
        ((0.50000000 0.50000000)
        (0.50000000 0.50000000)
        (0.50000000 0.50000000)
        (0.83333333 0.16666667)
        (0.50000000 0.50000000)
        (0.50000000 0.50000000)));
}
