net 
{
    node_size = (76 36);
}

node Area
{
    label = "Area";
    position = (128 521);
    states = ("Status1"  "Status2");
}

node BecomeHist
{
    label = "BecomeHist";
    position = (79 655);
    states = ("Status1"  "Status2");
}

node XNode
{
    label = "XNode";
    position = (282 644);
    states = ("Status0"  "Status1"  "Status2");
}

node MNode
{
    label = "MNode";
    position = (460 512);
    states = ("Status0"  "Status1"  "Status2"  "Status3"  "Status4" 
     "Status5");
}

node SpotDistribution
{
    label = "SpotDistribution";
    position = (632 316);
    states = ("C"  "I"  "O"  "X");
}

node Activity
{
    label = "Activity";
    position = (1108 638);
    states = ("Status1"  "Status2");
}

node SolarFlareType
{
    label = "SolarFlareType";
    position = (896 36);
    states = ("B"  "C"  "D"  "E"  "F"  "H");
}

node LargestSpotSize
{
    label = "LargestSpotSize";
    position = (1122 308);
    states = ("A"  "H"  "K"  "R"  "S"  "X");
}

node Evolution
{
    label = "Evolution";
    position = (570 32);
    states = ("Status1"  "Status2"  "Status3");
}

node PrevStatus24Hour
{
    label = "PrevStatus24Hour";
    position = (756 644);
    states = ("Status1"  "Status2"  "Status3");
}

node HistComplex
{
    label = "HistComplex";
    position = (796 506);
    states = ("Status1"  "Status2");
}

node CNode
{
    label = "CNode";
    position = (180 -24);
    states = ("Status0"  "Status1"  "Status2"  "Status3"  "Status4" 
     "Status5"  "Status6"  "Status8");
}

potential (Area |)
{
    data = (0.97422680 0.02577320);
}

potential (BecomeHist |)
{
    data = (0.12511715 0.87488285);
}

potential (XNode | Area)
{
    data = ((0.99839744 0.00128205 0.00032051)
        (0.83333333 0.11904762 0.04761905));
}

potential (MNode | XNode)
{
    data = ((0.96814187 0.02652228 0.00298180 0.00109856 0.00109856 
        0.00015694)
        (0.43333333 0.23333333 0.03333333 0.03333333 0.03333333 
        0.23333333)
        (0.08333333 0.08333333 0.08333333 0.58333333 0.08333333 
        0.08333333));
}

potential (SpotDistribution | BecomeHist Area MNode)
{
    data = ((((0.00187970 0.00187970 0.00187970 0.99436090)
        (0.12500000 0.12500000 0.12500000 0.62500000)
        (0.25000000 0.25000000 0.25000000 0.25000000)
        (0.25000000 0.25000000 0.25000000 0.25000000)
        (0.25000000 0.25000000 0.25000000 0.25000000)
        (0.25000000 0.25000000 0.25000000 0.25000000))
        ((0.25000000 0.25000000 0.25000000 0.25000000)
        (0.25000000 0.25000000 0.25000000 0.25000000)
        (0.25000000 0.25000000 0.25000000 0.25000000)
        (0.25000000 0.25000000 0.25000000 0.25000000)
        (0.25000000 0.25000000 0.25000000 0.25000000)
        (0.25000000 0.25000000 0.25000000 0.25000000)))
        (((0.01734926 0.22895336 0.52929465 0.22440273)
        (0.09000000 0.45000000 0.41000000 0.05000000)
        (0.08333333 0.41666667 0.41666667 0.08333333)
        (0.12500000 0.62500000 0.12500000 0.12500000)
        (0.12500000 0.62500000 0.12500000 0.12500000)
        (0.25000000 0.25000000 0.25000000 0.25000000))
        ((0.58333333 0.34523810 0.05952381 0.01190476)
        (0.65000000 0.25000000 0.05000000 0.05000000)
        (0.62500000 0.12500000 0.12500000 0.12500000)
        (0.62500000 0.12500000 0.12500000 0.12500000)
        (0.25000000 0.25000000 0.25000000 0.25000000)
        (0.62500000 0.12500000 0.12500000 0.12500000))));
}

potential (Activity | SpotDistribution)
{
    data = ((0.23611111 0.76388889)
        (0.66741071 0.33258929)
        (0.89435146 0.10564854)
        (0.95933735 0.04066265));
}

potential (SolarFlareType | SpotDistribution Activity Area)
{
    data = ((((0.02777778 0.02777778 0.36111111 0.52777778 0.02777778 
        0.02777778)
        (0.04166667 0.04166667 0.04166667 0.29166667 0.54166667 
        0.04166667))
        ((0.01282051 0.01282051 0.32051282 0.47435897 0.16666667 
        0.01282051)
        (0.01041667 0.01041667 0.07291667 0.63541667 0.26041667 
        0.01041667)))
        (((0.09703196 0.12442922 0.52853881 0.15867580 0.09018265 
        0.00114155)
        (0.03333333 0.03333333 0.03333333 0.43333333 0.43333333 
        0.03333333))
        ((0.01643192 0.04460094 0.52347418 0.24178404 0.17136150 
        0.00234742)
        (0.03333333 0.03333333 0.03333333 0.23333333 0.63333333 
        0.03333333)))
        (((0.29547229 0.39851678 0.24863388 0.04722873 0.00975800 
        0.00039032)
        (0.08333333 0.08333333 0.08333333 0.58333333 0.08333333 
        0.08333333))
        ((0.12091503 0.39542484 0.23856209 0.21895425 0.02287582 
        0.00326797)
        (0.16666667 0.16666667 0.16666667 0.16666667 0.16666667 
        0.16666667)))
        (((0.00052247 0.00052247 0.00052247 0.00052247 0.00052247 
        0.99738767)
        (0.16666667 0.16666667 0.16666667 0.16666667 0.16666667 
        0.16666667))
        ((0.01190476 0.01190476 0.01190476 0.01190476 0.01190476 
        0.94047619)
        (0.16666667 0.16666667 0.16666667 0.16666667 0.16666667 
        0.16666667))));
}

potential (LargestSpotSize | Area SolarFlareType)
{
    data = (((0.00112613 0.00112613 0.00112613 0.00112613 0.01463964 
        0.98085586)
        (0.11399371 0.01493711 0.00550314 0.43946541 0.42531447 
        0.00078616)
        (0.38981869 0.03417015 0.05509066 0.24755927 0.27266388 
        0.00069735)
        (0.56995885 0.07613169 0.05144033 0.02674897 0.27366255 
        0.00205761)
        (0.52020202 0.09595960 0.12626263 0.03535354 0.21717172 
        0.00505051)
        (0.09989960 0.02158635 0.00351406 0.18724900 0.68724900 
        0.00050201))
        ((0.16666667 0.16666667 0.16666667 0.16666667 0.16666667 
        0.16666667)
        (0.16666667 0.16666667 0.16666667 0.16666667 0.16666667 
        0.16666667)
        (0.08333333 0.08333333 0.58333333 0.08333333 0.08333333 
        0.08333333)
        (0.01041667 0.01041667 0.88541667 0.07291667 0.01041667 
        0.01041667)
        (0.26388889 0.01388889 0.68055556 0.01388889 0.01388889 
        0.01388889)
        (0.16666667 0.16666667 0.16666667 0.16666667 0.16666667 
        0.16666667)));
}

potential (Evolution | SpotDistribution)
{
    data = ((0.03703704 0.37037037 0.59259259)
        (0.02380952 0.41220238 0.56398810)
        (0.07810321 0.39818689 0.52370990)
        (0.10341365 0.57028112 0.32630522));
}

potential (PrevStatus24Hour | Activity MNode)
{
    data = (((0.99582384 0.00265756 0.00151860)
        (0.97101449 0.01449275 0.01449275)
        (0.77777778 0.11111111 0.11111111)
        (0.66666667 0.16666667 0.16666667)
        (0.33333333 0.33333333 0.33333333)
        (0.33333333 0.33333333 0.33333333))
        ((0.79437229 0.06709957 0.13852814)
        (0.66666667 0.16666667 0.16666667)
        (0.16666667 0.16666667 0.66666667)
        (0.66666667 0.16666667 0.16666667)
        (0.66666667 0.16666667 0.16666667)
        (0.16666667 0.16666667 0.66666667)));
}

potential (HistComplex | LargestSpotSize BecomeHist Area)
{
    data = ((((0.65625000 0.34375000)
        (0.50000000 0.50000000))
        ((0.27386935 0.72613065)
        (0.12500000 0.87500000)))
        (((0.70000000 0.30000000)
        (0.50000000 0.50000000))
        ((0.31250000 0.68750000)
        (0.50000000 0.50000000)))
        (((0.75000000 0.25000000)
        (0.50000000 0.50000000))
        ((0.06521739 0.93478261)
        (0.02083333 0.97916667)))
        (((0.70833333 0.29166667)
        (0.50000000 0.50000000))
        ((0.79468599 0.20531401)
        (0.25000000 0.75000000)))
        (((0.68446602 0.31553398)
        (0.50000000 0.50000000))
        ((0.62140575 0.37859425)
        (0.50000000 0.50000000)))
        (((0.50000000 0.50000000)
        (0.50000000 0.50000000))
        ((0.84589041 0.15410959)
        (0.50000000 0.50000000))));
}

potential (CNode | SpotDistribution MNode)
{
    data = (((0.57589286 0.18303571 0.07589286 0.00446429 0.07589286 
        0.04017857 0.04017857 0.00446429)
        (0.35416667 0.02083333 0.35416667 0.18750000 0.02083333 
        0.02083333 0.02083333 0.02083333)
        (0.06250000 0.06250000 0.56250000 0.06250000 0.06250000 
        0.06250000 0.06250000 0.06250000)
        (0.06250000 0.56250000 0.06250000 0.06250000 0.06250000 
        0.06250000 0.06250000 0.06250000)
        (0.12500000 0.12500000 0.12500000 0.12500000 0.12500000 
        0.12500000 0.12500000 0.12500000)
        (0.56250000 0.06250000 0.06250000 0.06250000 0.06250000 
        0.06250000 0.06250000 0.06250000))
        ((0.63696172 0.19198565 0.08193780 0.05801435 0.01973684 
        0.00059809 0.00538278 0.00538278)
        (0.54807692 0.24038462 0.00961538 0.08653846 0.00961538 
        0.08653846 0.00961538 0.00961538)
        (0.56250000 0.06250000 0.06250000 0.06250000 0.06250000 
        0.06250000 0.06250000 0.06250000)
        (0.56250000 0.06250000 0.06250000 0.06250000 0.06250000 
        0.06250000 0.06250000 0.06250000)
        (0.06250000 0.06250000 0.06250000 0.06250000 0.56250000 
        0.06250000 0.06250000 0.06250000)
        (0.12500000 0.12500000 0.12500000 0.12500000 0.12500000 
        0.12500000 0.12500000 0.12500000))
        ((0.86750535 0.09662741 0.01311563 0.01311563 0.00240899 
        0.00455032 0.00240899 0.00026767)
        (0.46590909 0.19318182 0.19318182 0.01136364 0.10227273 
        0.01136364 0.01136364 0.01136364)
        (0.06250000 0.06250000 0.56250000 0.06250000 0.06250000 
        0.06250000 0.06250000 0.06250000)
        (0.12500000 0.12500000 0.12500000 0.12500000 0.12500000 
        0.12500000 0.12500000 0.12500000)
        (0.12500000 0.12500000 0.12500000 0.12500000 0.12500000 
        0.12500000 0.12500000 0.12500000)
        (0.12500000 0.12500000 0.12500000 0.12500000 0.12500000 
        0.12500000 0.12500000 0.12500000))
        ((0.94280303 0.04886364 0.00643939 0.00037879 0.00037879 
        0.00037879 0.00037879 0.00037879)
        (0.70833333 0.04166667 0.04166667 0.04166667 0.04166667 
        0.04166667 0.04166667 0.04166667)
        (0.12500000 0.12500000 0.12500000 0.12500000 0.12500000 
        0.12500000 0.12500000 0.12500000)
        (0.12500000 0.12500000 0.12500000 0.12500000 0.12500000 
        0.12500000 0.12500000 0.12500000)
        (0.12500000 0.12500000 0.12500000 0.12500000 0.12500000 
        0.12500000 0.12500000 0.12500000)
        (0.12500000 0.12500000 0.12500000 0.12500000 0.12500000 
        0.12500000 0.12500000 0.12500000)));
}
