net 
{
    node_size = (76 36);
}

node Area
{
    label = "Area";
    position = (46 40);
    states = ("Status1"  "Status2");
}

node SpotDistribution
{
    label = "SpotDistribution";
    position = (142 40);
    states = ("C"  "I"  "O"  "X");
}

node MNode
{
    label = "MNode";
    position = (142 -24);
    states = ("Status0"  "Status1"  "Status2"  "Status3"  "Status4" 
     "Status5");
}

node XNode
{
    label = "XNode";
    position = (238 40);
    states = ("Status0"  "Status1"  "Status2");
}

node SolarFlareType
{
    label = "SolarFlareType";
    position = (334 -24);
    states = ("B"  "C"  "D"  "E"  "F"  "H");
}

node LargestSpotSize
{
    label = "LargestSpotSize";
    position = (430 40);
    states = ("A"  "H"  "K"  "R"  "S"  "X");
}

node CNode
{
    label = "CNode";
    position = (526 -24);
    states = ("Status0"  "Status1"  "Status2"  "Status3"  "Status4" 
     "Status5"  "Status6"  "Status8");
}

node PrevStatus24Hour
{
    label = "PrevStatus24Hour";
    position = (622 40);
    states = ("Status1"  "Status2"  "Status3");
}

node Activity
{
    label = "Activity";
    position = (718 40);
    states = ("Status1"  "Status2");
}

node Evolution
{
    label = "Evolution";
    position = (430 -24);
    states = ("Status1"  "Status2"  "Status3");
}

node HistComplex
{
    label = "HistComplex";
    position = (526 40);
    states = ("Status1"  "Status2");
}

node BecomeHist
{
    label = "BecomeHist";
    position = (334 40);
    states = ("Status1"  "Status2");
}

potential (Area |)
{
    data = (0.95669291 0.04330709);
}

potential (SpotDistribution | Area)
{
    data = ((0.01164384 0.21164384 0.49383562 0.28287671)
        (0.66176471 0.25000000 0.07352941 0.01470588));
}

potential (MNode | Area)
{
    data = ((0.95388128 0.03333333 0.00319635 0.00319635 0.00593607 
        0.00045662)
        (0.53921569 0.12745098 0.06862745 0.12745098 0.00980392 
        0.12745098));
}

potential (XNode | MNode)
{
    data = ((0.99534451 0.00372439 0.00093110)
        (0.82222222 0.15555556 0.02222222)
        (0.77777778 0.11111111 0.11111111)
        (0.33333333 0.08333333 0.58333333)
        (0.77777778 0.11111111 0.11111111)
        (0.11111111 0.77777778 0.11111111));
}

potential (SolarFlareType | SpotDistribution XNode)
{
    data = (((0.01851852 0.01851852 0.12962963 0.68518519 0.12962963 
        0.01851852)
        (0.02777778 0.02777778 0.02777778 0.52777778 0.36111111 
        0.02777778)
        (0.05555556 0.05555556 0.72222222 0.05555556 0.05555556 
        0.05555556))
        ((0.03861789 0.12398374 0.47764228 0.25813008 0.09959350 
        0.00203252)
        (0.16666667 0.16666667 0.16666667 0.16666667 0.16666667 
        0.16666667)
        (0.16666667 0.16666667 0.16666667 0.16666667 0.16666667 
        0.16666667))
        ((0.23717949 0.39652015 0.26465201 0.08882784 0.01190476 
        0.00091575)
        (0.16666667 0.16666667 0.16666667 0.16666667 0.16666667 
        0.16666667)
        (0.16666667 0.16666667 0.16666667 0.16666667 0.16666667 
        0.16666667))
        ((0.00160256 0.00160256 0.00160256 0.00160256 0.00160256 
        0.99198718)
        (0.16666667 0.16666667 0.16666667 0.16666667 0.16666667 
        0.16666667)
        (0.16666667 0.16666667 0.16666667 0.16666667 0.16666667 
        0.16666667)));
}

potential (LargestSpotSize | Area SolarFlareType)
{
    data = (((0.00354610 0.00354610 0.00354610 0.00354610 0.02482270 
        0.96099291)
        (0.09839357 0.01405622 0.00200803 0.45983936 0.42369478 
        0.00200803)
        (0.38389513 0.03558052 0.03558052 0.24906367 0.29400749 
        0.00187266)
        (0.66228070 0.10964912 0.00438596 0.03070175 0.18859649 
        0.00438596)
        (0.46296296 0.12962963 0.01851852 0.12962963 0.24074074 
        0.01851852)
        (0.11698718 0.01121795 0.00160256 0.21314103 0.65544872 
        0.00160256))
        ((0.16666667 0.16666667 0.16666667 0.16666667 0.16666667 
        0.16666667)
        (0.16666667 0.16666667 0.16666667 0.16666667 0.16666667 
        0.16666667)
        (0.05555556 0.05555556 0.72222222 0.05555556 0.05555556 
        0.05555556)
        (0.01666667 0.01666667 0.81666667 0.11666667 0.01666667 
        0.01666667)
        (0.19444444 0.02777778 0.69444444 0.02777778 0.02777778 
        0.02777778)
        (0.16666667 0.16666667 0.16666667 0.16666667 0.16666667 
        0.16666667)));
}

potential (CNode | LargestSpotSize XNode)
{
    data = (((0.64852941 0.14264706 0.06029412 0.07205882 0.03676471 
        0.00147059 0.02500000 0.01323529)
        (0.12500000 0.12500000 0.12500000 0.12500000 0.12500000 
        0.12500000 0.12500000 0.12500000)
        (0.12500000 0.12500000 0.12500000 0.12500000 0.12500000 
        0.12500000 0.12500000 0.12500000))
        ((0.64772727 0.28409091 0.01136364 0.01136364 0.01136364 
        0.01136364 0.01136364 0.01136364)
        (0.12500000 0.12500000 0.12500000 0.12500000 0.12500000 
        0.12500000 0.12500000 0.12500000)
        (0.12500000 0.12500000 0.12500000 0.12500000 0.12500000 
        0.12500000 0.12500000 0.12500000))
        ((0.37500000 0.10227273 0.19318182 0.10227273 0.10227273 
        0.01136364 0.10227273 0.01136364)
        (0.68750000 0.18750000 0.02083333 0.02083333 0.02083333 
        0.02083333 0.02083333 0.02083333)
        (0.04166667 0.70833333 0.04166667 0.04166667 0.04166667 
        0.04166667 0.04166667 0.04166667))
        ((0.87354651 0.09447674 0.01308140 0.00145349 0.00145349 
        0.01308140 0.00145349 0.00145349)
        (0.12500000 0.12500000 0.12500000 0.12500000 0.12500000 
        0.12500000 0.12500000 0.12500000)
        (0.12500000 0.12500000 0.12500000 0.12500000 0.12500000 
        0.12500000 0.12500000 0.12500000))
        ((0.84375000 0.10803571 0.02232143 0.02232143 0.00089286 
        0.00089286 0.00089286 0.00089286)
        (0.12500000 0.12500000 0.12500000 0.12500000 0.12500000 
        0.12500000 0.12500000 0.12500000)
        (0.12500000 0.12500000 0.12500000 0.12500000 0.12500000 
        0.12500000 0.12500000 0.12500000))
        ((0.89402174 0.08967391 0.00271739 0.00271739 0.00271739 
        0.00271739 0.00271739 0.00271739)
        (0.12500000 0.12500000 0.12500000 0.12500000 0.12500000 
        0.12500000 0.12500000 0.12500000)
        (0.12500000 0.12500000 0.12500000 0.12500000 0.12500000 
        0.12500000 0.12500000 0.12500000)));
}

potential (PrevStatus24Hour | CNode XNode)
{
    data = (((0.97785161 0.01107420 0.01107420)
        (0.46666667 0.06666667 0.46666667)
        (0.33333333 0.33333333 0.33333333))
        ((0.87121212 0.07575758 0.05303030)
        (0.16666667 0.16666667 0.66666667)
        (0.77777778 0.11111111 0.11111111))
        ((0.69444444 0.02777778 0.27777778)
        (0.33333333 0.33333333 0.33333333)
        (0.33333333 0.33333333 0.33333333))
        ((0.93939394 0.03030303 0.03030303)
        (0.33333333 0.33333333 0.33333333)
        (0.33333333 0.33333333 0.33333333))
        ((0.66666667 0.26666667 0.06666667)
        (0.33333333 0.33333333 0.33333333)
        (0.33333333 0.33333333 0.33333333))
        ((0.66666667 0.16666667 0.16666667)
        (0.33333333 0.33333333 0.33333333)
        (0.33333333 0.33333333 0.33333333))
        ((0.08333333 0.08333333 0.83333333)
        (0.33333333 0.33333333 0.33333333)
        (0.33333333 0.33333333 0.33333333))
        ((0.66666667 0.16666667 0.16666667)
        (0.33333333 0.33333333 0.33333333)
        (0.33333333 0.33333333 0.33333333)));
}

potential (Activity | SpotDistribution PrevStatus24Hour)
{
    data = (((0.35000000 0.65000000)
        (0.25000000 0.75000000)
        (0.08333333 0.91666667))
        ((0.65131579 0.34868421)
        (0.50000000 0.50000000)
        (0.07142857 0.92857143))
        ((0.93428571 0.06571429)
        (0.10000000 0.90000000)
        (0.37500000 0.62500000))
        ((0.97549020 0.02450980)
        (0.50000000 0.50000000)
        (0.50000000 0.50000000)));
}

potential (Evolution | SolarFlareType)
{
    data = ((0.07092199 0.39007092 0.53900709)
        (0.04016064 0.47389558 0.48594378)
        (0.03663004 0.27838828 0.68498168)
        (0.04964539 0.41134752 0.53900709)
        (0.16666667 0.59523810 0.23809524)
        (0.07051282 0.59935897 0.33012821));
}

potential (HistComplex | LargestSpotSize)
{
    data = ((0.32352941 0.67647059)
        (0.22727273 0.77272727)
        (0.02777778 0.97222222)
        (0.80813953 0.19186047)
        (0.68214286 0.31785714)
        (0.83695652 0.16304348));
}

potential (BecomeHist | SpotDistribution XNode)
{
    data = (((0.05555556 0.94444444)
        (0.08333333 0.91666667)
        (0.16666667 0.83333333))
        ((0.00609756 0.99390244)
        (0.50000000 0.50000000)
        (0.50000000 0.50000000))
        ((0.00274725 0.99725275)
        (0.50000000 0.50000000)
        (0.50000000 0.50000000))
        ((0.46634615 0.53365385)
        (0.50000000 0.50000000)
        (0.50000000 0.50000000)));
}
