net 
{
    node_size = (76 36);
}

node XNode
{
    label = "XNode";
    position = (46 104);
    states = ("Status0"  "Status1"  "Status2");
}

node MNode
{
    label = "MNode";
    position = (142 168);
    states = ("Status0"  "Status1"  "Status2"  "Status3"  "Status4" 
     "Status5");
}

node SpotDistribution
{
    label = "SpotDistribution";
    position = (238 168);
    states = ("C"  "I"  "O"  "X");
}

node LargestSpotSize
{
    label = "LargestSpotSize";
    position = (334 168);
    states = ("A"  "H"  "K"  "R"  "S"  "X");
}

node Activity
{
    label = "Activity";
    position = (238 104);
    states = ("Status1"  "Status2");
}

node Evolution
{
    label = "Evolution";
    position = (334 104);
    states = ("Status1"  "Status2"  "Status3");
}

node CNode
{
    label = "CNode";
    position = (238 -24);
    states = ("Status0"  "Status1"  "Status2"  "Status3"  "Status4" 
     "Status5"  "Status6"  "Status8");
}

node PrevStatus24Hour
{
    label = "PrevStatus24Hour";
    position = (334 40);
    states = ("Status1"  "Status2"  "Status3");
}

node HistComplex
{
    label = "HistComplex";
    position = (430 168);
    states = ("Status1"  "Status2");
}

node BecomeHist
{
    label = "BecomeHist";
    position = (46 168);
    states = ("Status1"  "Status2");
}

node Area
{
    label = "Area";
    position = (238 40);
    states = ("Status1"  "Status2");
}

node SolarFlareType
{
    label = "SolarFlareType";
    position = (430 104);
    states = ("B"  "C"  "D"  "E"  "F"  "H");
}

potential (XNode |)
{
    data = (0.98775153 0.00874891 0.00349956);
}

potential (MNode | XNode)
{
    data = ((0.95534925 0.02696729 0.00839965 0.00574713 0.00309461 
        0.00044209)
        (0.29166667 0.29166667 0.04166667 0.04166667 0.04166667 
        0.29166667)
        (0.08333333 0.08333333 0.08333333 0.58333333 0.08333333 
        0.08333333));
}

potential (SpotDistribution | MNode)
{
    data = ((0.03936464 0.21892265 0.41781768 0.32389503)
        (0.43750000 0.35416667 0.18750000 0.02083333)
        (0.06250000 0.56250000 0.31250000 0.06250000)
        (0.31250000 0.56250000 0.06250000 0.06250000)
        (0.12500000 0.62500000 0.12500000 0.12500000)
        (0.62500000 0.12500000 0.12500000 0.12500000));
}

potential (LargestSpotSize | SpotDistribution)
{
    data = ((0.28030303 0.05303030 0.64393939 0.00757576 0.00757576 
        0.00757576)
        (0.48501873 0.01310861 0.12546816 0.13670412 0.17041199 
        0.06928839)
        (0.11075269 0.02688172 0.00107527 0.29139785 0.29784946 
        0.27204301)
        (0.07768362 0.04378531 0.00988701 0.19632768 0.67090395 
        0.00141243));
}

potential (Activity | MNode)
{
    data = ((0.80801105 0.19198895)
        (0.70833333 0.29166667)
        (0.87500000 0.12500000)
        (0.62500000 0.37500000)
        (0.25000000 0.75000000)
        (0.25000000 0.75000000));
}

potential (Evolution | SpotDistribution)
{
    data = ((0.06060606 0.24242424 0.69696970)
        (0.01498127 0.41947566 0.56554307)
        (0.09247312 0.36989247 0.53763441)
        (0.13841808 0.57062147 0.29096045));
}

potential (CNode | MNode)
{
    data = ((0.81526243 0.09979282 0.03625691 0.00863260 0.01139503 
        0.01139503 0.01139503 0.00587017)
        (0.34375000 0.17708333 0.17708333 0.17708333 0.01041667 
        0.09375000 0.01041667 0.01041667)
        (0.53125000 0.03125000 0.28125000 0.03125000 0.03125000 
        0.03125000 0.03125000 0.03125000)
        (0.53125000 0.28125000 0.03125000 0.03125000 0.03125000 
        0.03125000 0.03125000 0.03125000)
        (0.06250000 0.06250000 0.06250000 0.06250000 0.56250000 
        0.06250000 0.06250000 0.06250000)
        (0.56250000 0.06250000 0.06250000 0.06250000 0.06250000 
        0.06250000 0.06250000 0.06250000));
}

potential (PrevStatus24Hour | CNode)
{
    data = ((0.97814208 0.01092896 0.01092896)
        (0.93333333 0.03333333 0.03333333)
        (0.84313725 0.07843137 0.07843137)
        (0.88888889 0.05555556 0.05555556)
        (0.88888889 0.05555556 0.05555556)
        (0.72222222 0.05555556 0.22222222)
        (0.26666667 0.06666667 0.66666667)
        (0.77777778 0.11111111 0.11111111));
}

potential (HistComplex | LargestSpotSize)
{
    data = ((0.34868421 0.65131579)
        (0.45833333 0.54166667)
        (0.05555556 0.94444444)
        (0.72222222 0.27777778)
        (0.62056738 0.37943262)
        (0.82653061 0.17346939));
}

potential (BecomeHist |)
{
    data = (0.12992126 0.87007874);
}

potential (Area | MNode)
{
    data = ((0.97651934 0.02348066)
        (0.62500000 0.37500000)
        (0.87500000 0.12500000)
        (0.62500000 0.37500000)
        (0.75000000 0.25000000)
        (0.25000000 0.75000000));
}

potential (SolarFlareType | LargestSpotSize PrevStatus24Hour BecomeHist)
{
    data = ((((0.02777778 0.02777778 0.02777778 0.02777778 0.02777778 
        0.86111111)
        (0.00245098 0.10539216 0.42892157 0.26715686 0.13480392 
        0.06127451))
        ((0.16666667 0.16666667 0.16666667 0.16666667 0.16666667 
        0.16666667)
        (0.16666667 0.16666667 0.16666667 0.16666667 0.16666667 
        0.16666667))
        ((0.16666667 0.16666667 0.16666667 0.16666667 0.16666667 
        0.16666667)
        (0.04166667 0.04166667 0.29166667 0.54166667 0.04166667 
        0.04166667)))
        (((0.04166667 0.04166667 0.04166667 0.04166667 0.04166667 
        0.79166667)
        (0.01851852 0.01851852 0.35185185 0.24074074 0.12962963 
        0.24074074))
        ((0.16666667 0.16666667 0.16666667 0.16666667 0.16666667 
        0.16666667)
        (0.16666667 0.16666667 0.16666667 0.16666667 0.16666667 
        0.16666667))
        ((0.16666667 0.16666667 0.16666667 0.16666667 0.16666667 
        0.16666667)
        (0.16666667 0.16666667 0.16666667 0.16666667 0.16666667 
        0.16666667)))
        (((0.08333333 0.08333333 0.08333333 0.08333333 0.08333333 
        0.58333333)
        (0.00833333 0.00833333 0.40833333 0.20833333 0.35833333 
        0.00833333))
        ((0.16666667 0.16666667 0.16666667 0.16666667 0.16666667 
        0.16666667)
        (0.05555556 0.05555556 0.38888889 0.38888889 0.05555556 
        0.05555556))
        ((0.16666667 0.16666667 0.16666667 0.16666667 0.16666667 
        0.16666667)
        (0.03333333 0.03333333 0.03333333 0.83333333 0.03333333 
        0.03333333)))
        (((0.04166667 0.04166667 0.04166667 0.04166667 0.04166667 
        0.79166667)
        (0.00216450 0.41774892 0.30086580 0.01515152 0.00216450 
        0.26190476))
        ((0.16666667 0.16666667 0.16666667 0.16666667 0.16666667 
        0.16666667)
        (0.08333333 0.08333333 0.58333333 0.08333333 0.08333333 
        0.08333333))
        ((0.16666667 0.16666667 0.16666667 0.16666667 0.16666667 
        0.16666667)
        (0.16666667 0.16666667 0.16666667 0.16666667 0.16666667 
        0.16666667)))
        (((0.00438596 0.00438596 0.00438596 0.00438596 0.00438596 
        0.97807018)
        (0.01166667 0.24166667 0.23166667 0.08166667 0.01166667 
        0.42166667))
        ((0.16666667 0.16666667 0.16666667 0.16666667 0.16666667 
        0.16666667)
        (0.05555556 0.38888889 0.38888889 0.05555556 0.05555556 
        0.05555556))
        ((0.16666667 0.16666667 0.16666667 0.16666667 0.16666667 
        0.16666667)
        (0.05555556 0.38888889 0.38888889 0.05555556 0.05555556 
        0.05555556)))
        (((0.16666667 0.16666667 0.16666667 0.16666667 0.16666667 
        0.16666667)
        (0.98299320 0.00340136 0.00340136 0.00340136 0.00340136 
        0.00340136))
        ((0.16666667 0.16666667 0.16666667 0.16666667 0.16666667 
        0.16666667)
        (0.16666667 0.16666667 0.16666667 0.16666667 0.16666667 
        0.16666667))
        ((0.16666667 0.16666667 0.16666667 0.16666667 0.16666667 
        0.16666667)
        (0.16666667 0.16666667 0.16666667 0.16666667 0.16666667 
        0.16666667))));
}
