net 
{
    node_size = (76 36);
}

node CNode
{
    label = "CNode";
    position = (46 104);
    states = ("Status0"  "Status1"  "Status2"  "Status3"  "Status4" 
     "Status5"  "Status6"  "Status8");
}

node XNode
{
    label = "XNode";
    position = (142 104);
    states = ("Status0"  "Status1"  "Status2");
}

node MNode
{
    label = "MNode";
    position = (238 104);
    states = ("Status0"  "Status1"  "Status2"  "Status3"  "Status4" 
     "Status5");
}

node Area
{
    label = "Area";
    position = (334 -24);
    states = ("Status1"  "Status2");
}

node LargestSpotSize
{
    label = "LargestSpotSize";
    position = (430 104);
    states = ("A"  "H"  "K"  "R"  "S"  "X");
}

node SpotDistribution
{
    label = "SpotDistribution";
    position = (526 104);
    states = ("C"  "I"  "O"  "X");
}

node Activity
{
    label = "Activity";
    position = (622 104);
    states = ("Status1"  "Status2");
}

node Evolution
{
    label = "Evolution";
    position = (334 104);
    states = ("Status1"  "Status2"  "Status3");
}

node PrevStatus24Hour
{
    label = "PrevStatus24Hour";
    position = (334 40);
    states = ("Status1"  "Status2"  "Status3");
}

node SolarFlareType
{
    label = "SolarFlareType";
    position = (622 -24);
    states = ("B"  "C"  "D"  "E"  "F"  "H");
}

node HistComplex
{
    label = "HistComplex";
    position = (718 104);
    states = ("Status1"  "Status2");
}

node BecomeHist
{
    label = "BecomeHist";
    position = (622 40);
    states = ("Status1"  "Status2");
}

potential (CNode |)
{
    data = (0.81592827 0.11128692 0.03252461 0.01845992 0.01002110 
        0.00580169 0.00439522 0.00158228);
}

potential (XNode | CNode)
{
    data = ((0.99541021 0.00401606 0.00057372)
        (0.95416667 0.02916667 0.01666667)
        (0.97222222 0.01388889 0.01388889)
        (0.95238095 0.02380952 0.02380952)
        (0.91666667 0.04166667 0.04166667)
        (0.86666667 0.06666667 0.06666667)
        (0.83333333 0.08333333 0.08333333)
        (0.66666667 0.16666667 0.16666667));
}

potential (MNode | XNode)
{
    data = ((0.96340888 0.02856468 0.00448536 0.00165250 0.00165250 
        0.00023607)
        (0.43333333 0.23333333 0.03333333 0.03333333 0.03333333 
        0.23333333)
        (0.08333333 0.08333333 0.08333333 0.58333333 0.08333333 
        0.08333333));
}

potential (Area | MNode)
{
    data = ((0.98023426 0.01976574)
        (0.79545455 0.20454545)
        (0.62500000 0.37500000)
        (0.50000000 0.50000000)
        (0.75000000 0.25000000)
        (0.25000000 0.75000000));
}

potential (LargestSpotSize | Area)
{
    data = ((0.20718765 0.02773758 0.02050169 0.22600096 0.38953208 
        0.12904004)
        (0.10317460 0.00793651 0.81746032 0.05555556 0.00793651 
        0.00793651));
}

potential (SpotDistribution | LargestSpotSize)
{
    data = ((0.04965753 0.53595890 0.28253425 0.13184932)
        (0.06250000 0.16250000 0.56250000 0.21250000)
        (0.47656250 0.47656250 0.00781250 0.03906250)
        (0.00791139 0.15348101 0.56487342 0.27373418)
        (0.00092593 0.09722222 0.36388889 0.53796296)
        (0.00277778 0.10277778 0.89166667 0.00277778));
}

potential (Activity | SpotDistribution)
{
    data = ((0.22000000 0.78000000)
        (0.64423077 0.35576923)
        (0.89843750 0.10156250)
        (0.94600939 0.05399061));
}

potential (Evolution | MNode)
{
    data = ((0.07369449 0.46022450 0.46608102)
        (0.01515152 0.33333333 0.65151515)
        (0.08333333 0.33333333 0.58333333)
        (0.11111111 0.44444444 0.44444444)
        (0.16666667 0.16666667 0.66666667)
        (0.16666667 0.16666667 0.66666667));
}

potential (PrevStatus24Hour | MNode)
{
    data = ((0.96681308 0.01366520 0.01952172)
        (0.92424242 0.06060606 0.01515152)
        (0.58333333 0.08333333 0.33333333)
        (0.77777778 0.11111111 0.11111111)
        (0.66666667 0.16666667 0.16666667)
        (0.16666667 0.16666667 0.66666667));
}

potential (SolarFlareType | SpotDistribution)
{
    data = ((0.00666667 0.00666667 0.12666667 0.60666667 0.24666667 
        0.00666667)
        (0.05876068 0.10363248 0.51388889 0.20619658 0.11645299 
        0.00106838)
        (0.25677083 0.39114583 0.25677083 0.08489583 0.00989583 
        0.00052083)
        (0.00078247 0.00078247 0.00078247 0.00078247 0.00078247 
        0.99608764));
}

potential (HistComplex | SolarFlareType)
{
    data = ((0.85326087 0.14673913)
        (0.74295775 0.25704225)
        (0.46686747 0.53313253)
        (0.18000000 0.82000000)
        (0.05357143 0.94642857)
        (0.68779343 0.31220657));
}

potential (BecomeHist | SpotDistribution)
{
    data = ((0.02000000 0.98000000)
        (0.00320513 0.99679487)
        (0.00156250 0.99843750)
        (0.42957746 0.57042254));
}
