net 
{
    node_size = (76 36);
}

node MNode
{
    label = "MNode";
    position = (46 40);
    states = ("Status0"  "Status1"  "Status2"  "Status3"  "Status4" 
     "Status5");
}

node Area
{
    label = "Area";
    position = (142 40);
    states = ("Status1"  "Status2");
}

node CNode
{
    label = "CNode";
    position = (142 -24);
    states = ("Status0"  "Status1"  "Status2"  "Status3"  "Status4" 
     "Status6");
}

node SolarFlareType
{
    label = "SolarFlareType";
    position = (238 40);
    states = ("B"  "C"  "D"  "E"  "F"  "H");
}

node LargestSpotSize
{
    label = "LargestSpotSize";
    position = (334 104);
    states = ("A"  "H"  "K"  "R"  "S"  "X");
}

node SpotDistribution
{
    label = "SpotDistribution";
    position = (334 40);
    states = ("C"  "I"  "O"  "X");
}

node PrevStatus24Hour
{
    label = "PrevStatus24Hour";
    position = (142 104);
    states = ("Status1"  "Status2"  "Status3");
}

node Activity
{
    label = "Activity";
    position = (430 104);
    states = ("Status1"  "Status2");
}

node Evolution
{
    label = "Evolution";
    position = (46 104);
    states = ("Status1"  "Status2"  "Status3");
}

node HistComplex
{
    label = "HistComplex";
    position = (430 40);
    states = ("Status1"  "Status2");
}

node BecomeHist
{
    label = "BecomeHist";
    position = (334 -24);
    states = ("Status1"  "Status2");
}

node XNode
{
    label = "XNode";
    position = (238 104);
    states = ("Status0"  "Status1"  "Status2");
}

potential (MNode |)
{
    data = (0.95271536 0.03417603 0.00327715 0.00327715 0.00327715 
        0.00327715);
}

potential (Area | MNode)
{
    data = ((0.97794118 0.02205882)
        (0.88461538 0.11538462)
        (0.25000000 0.75000000)
        (0.25000000 0.75000000)
        (0.75000000 0.25000000)
        (0.25000000 0.75000000));
}

potential (CNode | MNode)
{
    data = ((0.82696078 0.11813725 0.02107843 0.02696078 0.00343137 
        0.00343137)
        (0.62820513 0.16666667 0.08974359 0.01282051 0.08974359 
        0.01282051)
        (0.08333333 0.08333333 0.58333333 0.08333333 0.08333333 
        0.08333333)
        (0.08333333 0.58333333 0.08333333 0.08333333 0.08333333 
        0.08333333)
        (0.08333333 0.08333333 0.08333333 0.08333333 0.58333333 
        0.08333333)
        (0.58333333 0.08333333 0.08333333 0.08333333 0.08333333 
        0.08333333));
}

potential (SolarFlareType | CNode)
{
    data = ((0.13802978 0.23424971 0.20675830 0.08304696 0.01775487 
        0.32016037)
        (0.09469697 0.20833333 0.34469697 0.16287879 0.07196970 
        0.11742424)
        (0.01666667 0.11666667 0.41666667 0.11666667 0.21666667 
        0.11666667)
        (0.01666667 0.11666667 0.31666667 0.41666667 0.11666667 
        0.01666667)
        (0.04166667 0.04166667 0.04166667 0.79166667 0.04166667 
        0.04166667)
        (0.08333333 0.08333333 0.08333333 0.58333333 0.08333333 
        0.08333333));
}

potential (LargestSpotSize | Area SolarFlareType)
{
    data = (((0.00370370 0.00370370 0.00370370 0.00370370 0.02592593 
        0.95925926)
        (0.10208333 0.01458333 0.00208333 0.46458333 0.41458333 
        0.00208333)
        (0.39227642 0.03861789 0.02642276 0.24593496 0.29471545 
        0.00203252)
        (0.62254902 0.12254902 0.00490196 0.03431373 0.21078431 
        0.00490196)
        (0.46296296 0.12962963 0.01851852 0.12962963 0.24074074 
        0.01851852)
        (0.11166667 0.00166667 0.00166667 0.21166667 0.67166667 
        0.00166667))
        ((0.16666667 0.16666667 0.16666667 0.16666667 0.16666667 
        0.16666667)
        (0.16666667 0.16666667 0.16666667 0.16666667 0.16666667 
        0.16666667)
        (0.08333333 0.08333333 0.58333333 0.08333333 0.08333333 
        0.08333333)
        (0.02083333 0.02083333 0.77083333 0.14583333 0.02083333 
        0.02083333)
        (0.29166667 0.04166667 0.54166667 0.04166667 0.04166667 
        0.04166667)
        (0.16666667 0.16666667 0.16666667 0.16666667 0.16666667 
        0.16666667)));
}

potential (SpotDistribution | MNode SolarFlareType)
{
    data = (((0.00568182 0.05113636 0.93750000 0.00568182)
        (0.00316456 0.12974684 0.86392405 0.00316456)
        (0.01623377 0.41883117 0.56168831 0.00324675)
        (0.12142857 0.46428571 0.40714286 0.00714286)
        (0.02272727 0.75000000 0.20454545 0.02272727)
        (0.00252525 0.00252525 0.00252525 0.99242424))
        ((0.12500000 0.62500000 0.12500000 0.12500000)
        (0.12500000 0.12500000 0.62500000 0.12500000)
        (0.04166667 0.54166667 0.37500000 0.04166667)
        (0.06250000 0.31250000 0.56250000 0.06250000)
        (0.62500000 0.12500000 0.12500000 0.12500000)
        (0.12500000 0.12500000 0.12500000 0.62500000))
        ((0.25000000 0.25000000 0.25000000 0.25000000)
        (0.25000000 0.25000000 0.25000000 0.25000000)
        (0.25000000 0.25000000 0.25000000 0.25000000)
        (0.62500000 0.12500000 0.12500000 0.12500000)
        (0.25000000 0.25000000 0.25000000 0.25000000)
        (0.25000000 0.25000000 0.25000000 0.25000000))
        ((0.25000000 0.25000000 0.25000000 0.25000000)
        (0.25000000 0.25000000 0.25000000 0.25000000)
        (0.62500000 0.12500000 0.12500000 0.12500000)
        (0.25000000 0.25000000 0.25000000 0.25000000)
        (0.25000000 0.25000000 0.25000000 0.25000000)
        (0.25000000 0.25000000 0.25000000 0.25000000))
        ((0.25000000 0.25000000 0.25000000 0.25000000)
        (0.25000000 0.25000000 0.25000000 0.25000000)
        (0.25000000 0.25000000 0.25000000 0.25000000)
        (0.12500000 0.62500000 0.12500000 0.12500000)
        (0.25000000 0.25000000 0.25000000 0.25000000)
        (0.25000000 0.25000000 0.25000000 0.25000000))
        ((0.25000000 0.25000000 0.25000000 0.25000000)
        (0.25000000 0.25000000 0.25000000 0.25000000)
        (0.25000000 0.25000000 0.25000000 0.25000000)
        (0.62500000 0.12500000 0.12500000 0.12500000)
        (0.25000000 0.25000000 0.25000000 0.25000000)
        (0.25000000 0.25000000 0.25000000 0.25000000)));
}

potential (PrevStatus24Hour | MNode)
{
    data = ((0.95980392 0.01568627 0.02450980)
        (0.87179487 0.10256410 0.02564103)
        (0.16666667 0.16666667 0.66666667)
        (0.66666667 0.16666667 0.16666667)
        (0.66666667 0.16666667 0.16666667)
        (0.16666667 0.16666667 0.66666667));
}

potential (Activity | SpotDistribution PrevStatus24Hour)
{
    data = (((0.25000000 0.75000000)
        (0.25000000 0.75000000)
        (0.12500000 0.87500000))
        ((0.66428571 0.33571429)
        (0.50000000 0.50000000)
        (0.08333333 0.91666667))
        ((0.93786982 0.06213018)
        (0.12500000 0.87500000)
        (0.50000000 0.50000000))
        ((0.97448980 0.02551020)
        (0.50000000 0.50000000)
        (0.50000000 0.50000000)));
}

potential (Evolution |)
{
    data = (0.05430712 0.46161049 0.48408240);
}

potential (HistComplex | LargestSpotSize)
{
    data = ((0.30128205 0.69871795)
        (0.15000000 0.85000000)
        (0.04166667 0.95833333)
        (0.79878049 0.20121951)
        (0.67777778 0.32222222)
        (0.85227273 0.14772727));
}

potential (BecomeHist | MNode SolarFlareType)
{
    data = (((0.01136364 0.98863636)
        (0.00632911 0.99367089)
        (0.00649351 0.99350649)
        (0.01428571 0.98571429)
        (0.04545455 0.95454545)
        (0.45959596 0.54040404))
        ((0.25000000 0.75000000)
        (0.25000000 0.75000000)
        (0.08333333 0.91666667)
        (0.12500000 0.87500000)
        (0.25000000 0.75000000)
        (0.25000000 0.75000000))
        ((0.50000000 0.50000000)
        (0.50000000 0.50000000)
        (0.50000000 0.50000000)
        (0.25000000 0.75000000)
        (0.50000000 0.50000000)
        (0.50000000 0.50000000))
        ((0.50000000 0.50000000)
        (0.50000000 0.50000000)
        (0.25000000 0.75000000)
        (0.50000000 0.50000000)
        (0.50000000 0.50000000)
        (0.50000000 0.50000000))
        ((0.50000000 0.50000000)
        (0.50000000 0.50000000)
        (0.50000000 0.50000000)
        (0.25000000 0.75000000)
        (0.50000000 0.50000000)
        (0.50000000 0.50000000))
        ((0.50000000 0.50000000)
        (0.50000000 0.50000000)
        (0.50000000 0.50000000)
        (0.25000000 0.75000000)
        (0.50000000 0.50000000)
        (0.50000000 0.50000000)));
}

potential (XNode | Area)
{
    data = ((0.99806763 0.00096618 0.00096618)
        (0.61111111 0.27777778 0.11111111));
}
