net 
{
    node_size = (76 36);
}

node MNode
{
    label = "MNode";
    position = (46 104);
    states = ("Status0"  "Status1"  "Status2"  "Status3"  "Status4" 
     "Status5");
}

node PrevStatus24Hour
{
    label = "PrevStatus24Hour";
    position = (142 104);
    states = ("Status1"  "Status2"  "Status3");
}

node XNode
{
    label = "XNode";
    position = (238 -24);
    states = ("Status0"  "Status1"  "Status2");
}

node CNode
{
    label = "CNode";
    position = (238 40);
    states = ("Status0"  "Status1"  "Status2"  "Status3"  "Status4" 
     "Status6");
}

node SolarFlareType
{
    label = "SolarFlareType";
    position = (334 104);
    states = ("B"  "C"  "D"  "E"  "F"  "H");
}

node LargestSpotSize
{
    label = "LargestSpotSize";
    position = (430 104);
    states = ("A"  "H"  "K"  "R"  "S"  "X");
}

node SpotDistribution
{
    label = "SpotDistribution";
    position = (430 40);
    states = ("C"  "I"  "O"  "X");
}

node Activity
{
    label = "Activity";
    position = (526 104);
    states = ("Status1"  "Status2");
}

node Evolution
{
    label = "Evolution";
    position = (238 104);
    states = ("Status1"  "Status2"  "Status3");
}

node HistComplex
{
    label = "HistComplex";
    position = (430 -24);
    states = ("Status1"  "Status2");
}

node BecomeHist
{
    label = "BecomeHist";
    position = (526 40);
    states = ("Status1"  "Status2");
}

node Area
{
    label = "Area";
    position = (526 -24);
    states = ("Status1"  "Status2");
}

potential (MNode |)
{
    data = (0.95271536 0.03417603 0.00327715 0.00327715 0.00327715 
        0.00327715);
}

potential (PrevStatus24Hour | MNode)
{
    data = ((0.95980392 0.01568627 0.02450980)
        (0.87179487 0.10256410 0.02564103)
        (0.16666667 0.16666667 0.66666667)
        (0.66666667 0.16666667 0.16666667)
        (0.66666667 0.16666667 0.16666667)
        (0.16666667 0.16666667 0.66666667));
}

potential (XNode | PrevStatus24Hour)
{
    data = ((0.99215686 0.00392157 0.00392157)
        (0.90476190 0.04761905 0.04761905)
        (0.75757576 0.21212121 0.03030303));
}

potential (CNode | PrevStatus24Hour MNode)
{
    data = (((0.84148828 0.11060143 0.01885831 0.02803262 0.00050968 
        0.00050968)
        (0.68055556 0.09722222 0.09722222 0.01388889 0.09722222 
        0.01388889)
        (0.16666667 0.16666667 0.16666667 0.16666667 0.16666667 
        0.16666667)
        (0.08333333 0.58333333 0.08333333 0.08333333 0.08333333 
        0.08333333)
        (0.08333333 0.08333333 0.08333333 0.08333333 0.58333333 
        0.08333333)
        (0.16666667 0.16666667 0.16666667 0.16666667 0.16666667 
        0.16666667))
        ((0.52777778 0.19444444 0.02777778 0.02777778 0.19444444 
        0.02777778)
        (0.08333333 0.58333333 0.08333333 0.08333333 0.08333333 
        0.08333333)
        (0.16666667 0.16666667 0.16666667 0.16666667 0.16666667 
        0.16666667)
        (0.16666667 0.16666667 0.16666667 0.16666667 0.16666667 
        0.16666667)
        (0.16666667 0.16666667 0.16666667 0.16666667 0.16666667 
        0.16666667)
        (0.16666667 0.16666667 0.16666667 0.16666667 0.16666667 
        0.16666667))
        ((0.35185185 0.35185185 0.12962963 0.01851852 0.01851852 
        0.12962963)
        (0.16666667 0.16666667 0.16666667 0.16666667 0.16666667 
        0.16666667)
        (0.08333333 0.08333333 0.58333333 0.08333333 0.08333333 
        0.08333333)
        (0.16666667 0.16666667 0.16666667 0.16666667 0.16666667 
        0.16666667)
        (0.16666667 0.16666667 0.16666667 0.16666667 0.16666667 
        0.16666667)
        (0.58333333 0.08333333 0.08333333 0.08333333 0.08333333 
        0.08333333)));
}

potential (SolarFlareType | CNode)
{
    data = ((0.13802978 0.23424971 0.20675830 0.08304696 0.01775487 
        0.32016037)
        (0.09469697 0.20833333 0.34469697 0.16287879 0.07196970 
        0.11742424)
        (0.01666667 0.11666667 0.41666667 0.11666667 0.21666667 
        0.11666667)
        (0.01666667 0.11666667 0.31666667 0.41666667 0.11666667 
        0.01666667)
        (0.04166667 0.04166667 0.04166667 0.79166667 0.04166667 
        0.04166667)
        (0.08333333 0.08333333 0.08333333 0.58333333 0.08333333 
        0.08333333));
}

potential (LargestSpotSize | XNode SolarFlareType)
{
    data = (((0.00370370 0.00370370 0.00370370 0.00370370 0.02592593 
        0.95925926)
        (0.10208333 0.01458333 0.00208333 0.46458333 0.41458333 
        0.00208333)
        (0.39227642 0.03861789 0.02642276 0.24593496 0.29471545 
        0.00203252)
        (0.54273504 0.10683761 0.10683761 0.05555556 0.18376068 
        0.00427350)
        (0.46969697 0.10606061 0.10606061 0.10606061 0.19696970 
        0.01515152)
        (0.11166667 0.00166667 0.00166667 0.21166667 0.67166667 
        0.00166667))
        ((0.16666667 0.16666667 0.16666667 0.16666667 0.16666667 
        0.16666667)
        (0.16666667 0.16666667 0.16666667 0.16666667 0.16666667 
        0.16666667)
        (0.16666667 0.16666667 0.16666667 0.16666667 0.16666667 
        0.16666667)
        (0.05555556 0.05555556 0.72222222 0.05555556 0.05555556 
        0.05555556)
        (0.08333333 0.08333333 0.58333333 0.08333333 0.08333333 
        0.08333333)
        (0.16666667 0.16666667 0.16666667 0.16666667 0.16666667 
        0.16666667))
        ((0.16666667 0.16666667 0.16666667 0.16666667 0.16666667 
        0.16666667)
        (0.16666667 0.16666667 0.16666667 0.16666667 0.16666667 
        0.16666667)
        (0.08333333 0.08333333 0.58333333 0.08333333 0.08333333 
        0.08333333)
        (0.16666667 0.16666667 0.16666667 0.16666667 0.16666667 
        0.16666667)
        (0.16666667 0.16666667 0.16666667 0.16666667 0.16666667 
        0.16666667)
        (0.16666667 0.16666667 0.16666667 0.16666667 0.16666667 
        0.16666667)));
}

potential (SpotDistribution | MNode SolarFlareType)
{
    data = (((0.00568182 0.05113636 0.93750000 0.00568182)
        (0.00316456 0.12974684 0.86392405 0.00316456)
        (0.01623377 0.41883117 0.56168831 0.00324675)
        (0.12142857 0.46428571 0.40714286 0.00714286)
        (0.02272727 0.75000000 0.20454545 0.02272727)
        (0.00252525 0.00252525 0.00252525 0.99242424))
        ((0.12500000 0.62500000 0.12500000 0.12500000)
        (0.12500000 0.12500000 0.62500000 0.12500000)
        (0.04166667 0.54166667 0.37500000 0.04166667)
        (0.06250000 0.31250000 0.56250000 0.06250000)
        (0.62500000 0.12500000 0.12500000 0.12500000)
        (0.12500000 0.12500000 0.12500000 0.62500000))
        ((0.25000000 0.25000000 0.25000000 0.25000000)
        (0.25000000 0.25000000 0.25000000 0.25000000)
        (0.25000000 0.25000000 0.25000000 0.25000000)
        (0.62500000 0.12500000 0.12500000 0.12500000)
        (0.25000000 0.25000000 0.25000000 0.25000000)
        (0.25000000 0.25000000 0.25000000 0.25000000))
        ((0.25000000 0.25000000 0.25000000 0.25000000)
        (0.25000000 0.25000000 0.25000000 0.25000000)
        (0.62500000 0.12500000 0.12500000 0.12500000)
        (0.25000000 0.25000000 0.25000000 0.25000000)
        (0.25000000 0.25000000 0.25000000 0.25000000)
        (0.25000000 0.25000000 0.25000000 0.25000000))
        ((0.25000000 0.25000000 0.25000000 0.25000000)
        (0.25000000 0.25000000 0.25000000 0.25000000)
        (0.25000000 0.25000000 0.25000000 0.25000000)
        (0.12500000 0.62500000 0.12500000 0.12500000)
        (0.25000000 0.25000000 0.25000000 0.25000000)
        (0.25000000 0.25000000 0.25000000 0.25000000))
        ((0.25000000 0.25000000 0.25000000 0.25000000)
        (0.25000000 0.25000000 0.25000000 0.25000000)
        (0.25000000 0.25000000 0.25000000 0.25000000)
        (0.62500000 0.12500000 0.12500000 0.12500000)
        (0.25000000 0.25000000 0.25000000 0.25000000)
        (0.25000000 0.25000000 0.25000000 0.25000000)));
}

potential (Activity | SpotDistribution PrevStatus24Hour)
{
    data = (((0.25000000 0.75000000)
        (0.25000000 0.75000000)
        (0.12500000 0.87500000))
        ((0.66428571 0.33571429)
        (0.50000000 0.50000000)
        (0.08333333 0.91666667))
        ((0.93786982 0.06213018)
        (0.12500000 0.87500000)
        (0.50000000 0.50000000))
        ((0.97448980 0.02551020)
        (0.50000000 0.50000000)
        (0.50000000 0.50000000)));
}

potential (Evolution | PrevStatus24Hour)
{
    data = ((0.05098039 0.46568627 0.48333333)
        (0.19047619 0.47619048 0.33333333)
        (0.12121212 0.30303030 0.57575758));
}

potential (HistComplex | SolarFlareType)
{
    data = ((0.85555556 0.14444444)
        (0.78125000 0.21875000)
        (0.52409639 0.47590361)
        (0.15853659 0.84146341)
        (0.04166667 0.95833333)
        (0.68500000 0.31500000));
}

potential (BecomeHist | SpotDistribution MNode)
{
    data = (((0.08333333 0.91666667)
        (0.25000000 0.75000000)
        (0.25000000 0.75000000)
        (0.25000000 0.75000000)
        (0.50000000 0.50000000)
        (0.25000000 0.75000000))
        ((0.00724638 0.99275362)
        (0.08333333 0.91666667)
        (0.50000000 0.50000000)
        (0.50000000 0.50000000)
        (0.25000000 0.75000000)
        (0.50000000 0.50000000))
        ((0.00295858 0.99704142)
        (0.08333333 0.91666667)
        (0.50000000 0.50000000)
        (0.50000000 0.50000000)
        (0.50000000 0.50000000)
        (0.50000000 0.50000000))
        ((0.45959596 0.54040404)
        (0.25000000 0.75000000)
        (0.50000000 0.50000000)
        (0.50000000 0.50000000)
        (0.50000000 0.50000000)
        (0.50000000 0.50000000)));
}

potential (Area | LargestSpotSize MNode)
{
    data = (((0.97887324 0.02112676)
        (0.92857143 0.07142857)
        (0.50000000 0.50000000)
        (0.50000000 0.50000000)
        (0.75000000 0.25000000)
        (0.50000000 0.50000000))
        ((0.94444444 0.05555556)
        (0.75000000 0.25000000)
        (0.50000000 0.50000000)
        (0.50000000 0.50000000)
        (0.50000000 0.50000000)
        (0.50000000 0.50000000))
        ((0.31250000 0.68750000)
        (0.25000000 0.75000000)
        (0.25000000 0.75000000)
        (0.25000000 0.75000000)
        (0.50000000 0.50000000)
        (0.25000000 0.75000000))
        ((0.98170732 0.01829268)
        (0.50000000 0.50000000)
        (0.50000000 0.50000000)
        (0.50000000 0.50000000)
        (0.50000000 0.50000000)
        (0.50000000 0.50000000))
        ((0.99621212 0.00378788)
        (0.87500000 0.12500000)
        (0.50000000 0.50000000)
        (0.50000000 0.50000000)
        (0.50000000 0.50000000)
        (0.50000000 0.50000000))
        ((0.98837209 0.01162791)
        (0.75000000 0.25000000)
        (0.50000000 0.50000000)
        (0.50000000 0.50000000)
        (0.50000000 0.50000000)
        (0.50000000 0.50000000)));
}
