net 
{
    node_size = (76 36);
}

node CNode
{
    label = "CNode";
    position = (46 40);
    states = ("Status0"  "Status1"  "Status2"  "Status3"  "Status4" 
     "Status5"  "Status6"  "Status8");
}

node PrevStatus24Hour
{
    label = "PrevStatus24Hour";
    position = (142 104);
    states = ("Status1"  "Status2"  "Status3");
}

node SpotDistribution
{
    label = "SpotDistribution";
    position = (238 104);
    states = ("C"  "I"  "O"  "X");
}

node LargestSpotSize
{
    label = "LargestSpotSize";
    position = (334 104);
    states = ("A"  "H"  "K"  "R"  "S"  "X");
}

node SolarFlareType
{
    label = "SolarFlareType";
    position = (430 40);
    states = ("B"  "C"  "D"  "E"  "F"  "H");
}

node Activity
{
    label = "Activity";
    position = (526 104);
    states = ("Status1"  "Status2");
}

node HistComplex
{
    label = "HistComplex";
    position = (334 40);
    states = ("Status1"  "Status2");
}

node BecomeHist
{
    label = "BecomeHist";
    position = (334 -24);
    states = ("Status1"  "Status2");
}

node MNode
{
    label = "MNode";
    position = (142 40);
    states = ("Status0"  "Status1"  "Status2"  "Status3");
}

node Area
{
    label = "Area";
    position = (430 104);
    states = ("Status1"  "Status2");
}

node XNode
{
    label = "XNode";
    position = (238 40);
    states = ("Status0"  "Status1");
}

potential (CNode |)
{
    data = (0.81495787 0.10147472 0.03967697 0.01158708 0.01158708 
        0.01158708 0.00596910 0.00316011);
}

potential (PrevStatus24Hour | CNode)
{
    data = ((0.98052692 0.01145475 0.00801833)
        (0.95495495 0.00900901 0.03603604)
        (0.88888889 0.08888889 0.02222222)
        (0.86666667 0.06666667 0.06666667)
        (0.86666667 0.06666667 0.06666667)
        (0.66666667 0.06666667 0.26666667)
        (0.44444444 0.11111111 0.44444444)
        (0.66666667 0.16666667 0.16666667));
}

potential (SpotDistribution | PrevStatus24Hour)
{
    data = ((0.03242075 0.22838617 0.41282421 0.32636888)
        (0.25000000 0.45000000 0.25000000 0.05000000)
        (0.54166667 0.04166667 0.37500000 0.04166667));
}

potential (LargestSpotSize | SpotDistribution)
{
    data = ((0.32291667 0.07291667 0.57291667 0.01041667 0.01041667 
        0.01041667)
        (0.47764228 0.01422764 0.12398374 0.13617886 0.17276423 
        0.07520325)
        (0.10997732 0.02834467 0.00113379 0.29365079 0.29365079 
        0.27324263)
        (0.07163743 0.03654971 0.01023392 0.19444444 0.68567251 
        0.00146199));
}

potential (SolarFlareType | LargestSpotSize)
{
    data = ((0.00241546 0.10386473 0.40821256 0.23429952 0.13285024 
        0.11835749)
        (0.01515152 0.01515152 0.28787879 0.19696970 0.10606061 
        0.37878788)
        (0.00793651 0.00793651 0.34126984 0.34126984 0.24603175 
        0.05555556)
        (0.00216450 0.40476190 0.28787879 0.01515152 0.00216450 
        0.28787879)
        (0.00857843 0.17769608 0.17034314 0.06004902 0.00857843 
        0.57475490)
        (0.98226950 0.00354610 0.00354610 0.00354610 0.00354610 
        0.00354610));
}

potential (Activity | SolarFlareType)
{
    data = ((0.94791667 0.05208333)
        (0.86507937 0.13492063)
        (0.77976190 0.22023810)
        (0.47142857 0.52857143)
        (0.38235294 0.61764706)
        (0.92543860 0.07456140));
}

potential (HistComplex | SpotDistribution)
{
    data = ((0.09375000 0.90625000)
        (0.28658537 0.71341463)
        (0.69047619 0.30952381)
        (0.68859649 0.31140351));
}

potential (BecomeHist | SpotDistribution)
{
    data = ((0.03125000 0.96875000)
        (0.00609756 0.99390244)
        (0.00340136 0.99659864)
        (0.40789474 0.59210526));
}

potential (MNode | CNode)
{
    data = ((0.98024055 0.01116838 0.00429553 0.00429553)
        (0.92567568 0.06081081 0.00675676 0.00675676)
        (0.75000000 0.15000000 0.08333333 0.01666667)
        (0.65000000 0.25000000 0.05000000 0.05000000)
        (0.85000000 0.05000000 0.05000000 0.05000000)
        (0.65000000 0.25000000 0.05000000 0.05000000)
        (0.75000000 0.08333333 0.08333333 0.08333333)
        (0.62500000 0.12500000 0.12500000 0.12500000));
}

potential (Area | LargestSpotSize MNode)
{
    data = (((0.99218750 0.00781250)
        (0.70000000 0.30000000)
        (0.75000000 0.25000000)
        (0.50000000 0.50000000))
        ((0.95454545 0.04545455)
        (0.50000000 0.50000000)
        (0.50000000 0.50000000)
        (0.50000000 0.50000000))
        ((0.65789474 0.34210526)
        (0.16666667 0.83333333)
        (0.50000000 0.50000000)
        (0.50000000 0.50000000))
        ((0.99333333 0.00666667)
        (0.83333333 0.16666667)
        (0.50000000 0.50000000)
        (0.50000000 0.50000000))
        ((0.99624060 0.00375940)
        (0.75000000 0.25000000)
        (0.75000000 0.25000000)
        (0.75000000 0.25000000))
        ((0.98936170 0.01063830)
        (0.50000000 0.50000000)
        (0.50000000 0.50000000)
        (0.50000000 0.50000000)));
}

potential (XNode | MNode)
{
    data = ((0.99563953 0.00436047)
        (0.95000000 0.05000000)
        (0.83333333 0.16666667)
        (0.75000000 0.25000000));
}
