net 
{
    node_size = (76 36);
}

node LargestSpotSize
{
    label = "LargestSpotSize";
    position = (46 104);
    states = ("A"  "H"  "K"  "R"  "S"  "X");
}

node Area
{
    label = "Area";
    position = (142 104);
    states = ("Status1"  "Status2");
}

node CNode
{
    label = "CNode";
    position = (238 104);
    states = ("Status0"  "Status1"  "Status2"  "Status3"  "Status4" 
     "Status5"  "Status6"  "Status8");
}

node MNode
{
    label = "MNode";
    position = (334 104);
    states = ("Status0"  "Status1"  "Status2"  "Status3"  "Status4" 
     "Status5");
}

node XNode
{
    label = "XNode";
    position = (430 -24);
    states = ("Status0"  "Status1"  "Status2");
}

node SolarFlareType
{
    label = "SolarFlareType";
    position = (334 40);
    states = ("B"  "C"  "D"  "E"  "F"  "H");
}

node SpotDistribution
{
    label = "SpotDistribution";
    position = (526 104);
    states = ("C"  "I"  "O"  "X");
}

node Activity
{
    label = "Activity";
    position = (622 104);
    states = ("Status1"  "Status2");
}

node Evolution
{
    label = "Evolution";
    position = (430 104);
    states = ("Status1"  "Status2"  "Status3");
}

node PrevStatus24Hour
{
    label = "PrevStatus24Hour";
    position = (718 104);
    states = ("Status1"  "Status2"  "Status3");
}

node HistComplex
{
    label = "HistComplex";
    position = (430 40);
    states = ("Status1"  "Status2");
}

node BecomeHist
{
    label = "BecomeHist";
    position = (622 40);
    states = ("Status1"  "Status2");
}

potential (LargestSpotSize |)
{
    data = (0.20417253 0.02695734 0.04383497 0.22105016 0.37857478 
        0.12541022);
}

potential (Area | LargestSpotSize)
{
    data = ((0.98287671 0.01712329)
        (0.97500000 0.02500000)
        (0.45312500 0.54687500)
        (0.99050633 0.00949367)
        (0.99814815 0.00185185)
        (0.99444444 0.00555556));
}

potential (CNode | Area)
{
    data = ((0.82651954 0.10727207 0.02912446 0.01754703 0.00886397 
        0.00596961 0.00307525 0.00162808)
        (0.43452381 0.24404762 0.14880952 0.05357143 0.05357143 
        0.00595238 0.05357143 0.00595238));
}

potential (MNode | Area CNode)
{
    data = (((0.97756410 0.01777389 0.00203963 0.00203963 0.00029138 
        0.00029138)
        (0.94888889 0.04222222 0.00222222 0.00222222 0.00222222 
        0.00222222)
        (0.86507937 0.05555556 0.05555556 0.00793651 0.00793651 
        0.00793651)
        (0.85897436 0.08974359 0.01282051 0.01282051 0.01282051 
        0.01282051)
        (0.59523810 0.16666667 0.02380952 0.02380952 0.16666667 
        0.02380952)
        (0.63333333 0.23333333 0.03333333 0.03333333 0.03333333 
        0.03333333)
        (0.72222222 0.05555556 0.05555556 0.05555556 0.05555556 
        0.05555556)
        (0.58333333 0.08333333 0.08333333 0.08333333 0.08333333 
        0.08333333))
        ((0.71666667 0.11666667 0.01666667 0.01666667 0.01666667 
        0.11666667)
        (0.52777778 0.19444444 0.02777778 0.19444444 0.02777778 
        0.02777778)
        (0.04166667 0.54166667 0.29166667 0.04166667 0.04166667 
        0.04166667)
        (0.58333333 0.08333333 0.08333333 0.08333333 0.08333333 
        0.08333333)
        (0.58333333 0.08333333 0.08333333 0.08333333 0.08333333 
        0.08333333)
        (0.16666667 0.16666667 0.16666667 0.16666667 0.16666667 
        0.16666667)
        (0.58333333 0.08333333 0.08333333 0.08333333 0.08333333 
        0.08333333)
        (0.16666667 0.16666667 0.16666667 0.16666667 0.16666667 
        0.16666667)));
}

potential (XNode | MNode)
{
    data = ((0.99609566 0.00341630 0.00048804)
        (0.92424242 0.06060606 0.01515152)
        (0.83333333 0.08333333 0.08333333)
        (0.44444444 0.11111111 0.44444444)
        (0.66666667 0.16666667 0.16666667)
        (0.16666667 0.66666667 0.16666667));
}

potential (SolarFlareType | CNode)
{
    data = ((0.14658635 0.20854848 0.21371199 0.06397017 0.02438325 
        0.34279977)
        (0.07708333 0.18958333 0.35208333 0.15208333 0.08958333 
        0.13958333)
        (0.00694444 0.09027778 0.38194444 0.29861111 0.13194444 
        0.09027778)
        (0.01190476 0.15476190 0.22619048 0.51190476 0.08333333 
        0.01190476)
        (0.02083333 0.02083333 0.14583333 0.52083333 0.27083333 
        0.02083333)
        (0.03333333 0.23333333 0.03333333 0.63333333 0.03333333 
        0.03333333)
        (0.04166667 0.04166667 0.04166667 0.79166667 0.04166667 
        0.04166667)
        (0.08333333 0.08333333 0.08333333 0.58333333 0.08333333 
        0.08333333));
}

potential (SpotDistribution | Area XNode SolarFlareType)
{
    data = ((((0.00271739 0.10054348 0.89402174 0.00271739)
        (0.00176056 0.11443662 0.88204225 0.00176056)
        (0.01363636 0.48636364 0.49848485 0.00151515)
        (0.09920635 0.48015873 0.41666667 0.00396825)
        (0.11250000 0.71250000 0.16250000 0.01250000)
        (0.00117371 0.00117371 0.00117371 0.99647887))
        ((0.25000000 0.25000000 0.25000000 0.25000000)
        (0.25000000 0.25000000 0.25000000 0.25000000)
        (0.25000000 0.25000000 0.25000000 0.25000000)
        (0.25000000 0.25000000 0.25000000 0.25000000)
        (0.12500000 0.62500000 0.12500000 0.12500000)
        (0.25000000 0.25000000 0.25000000 0.25000000))
        ((0.25000000 0.25000000 0.25000000 0.25000000)
        (0.25000000 0.25000000 0.25000000 0.25000000)
        (0.25000000 0.25000000 0.25000000 0.25000000)
        (0.25000000 0.25000000 0.25000000 0.25000000)
        (0.25000000 0.25000000 0.25000000 0.25000000)
        (0.25000000 0.25000000 0.25000000 0.25000000)))
        (((0.25000000 0.25000000 0.25000000 0.25000000)
        (0.25000000 0.25000000 0.25000000 0.25000000)
        (0.25000000 0.25000000 0.25000000 0.25000000)
        (0.65909091 0.20454545 0.11363636 0.02272727)
        (0.46428571 0.46428571 0.03571429 0.03571429)
        (0.25000000 0.25000000 0.25000000 0.25000000))
        ((0.25000000 0.25000000 0.25000000 0.25000000)
        (0.25000000 0.25000000 0.25000000 0.25000000)
        (0.25000000 0.25000000 0.25000000 0.25000000)
        (0.75000000 0.08333333 0.08333333 0.08333333)
        (0.62500000 0.12500000 0.12500000 0.12500000)
        (0.25000000 0.25000000 0.25000000 0.25000000))
        ((0.25000000 0.25000000 0.25000000 0.25000000)
        (0.25000000 0.25000000 0.25000000 0.25000000)
        (0.62500000 0.12500000 0.12500000 0.12500000)
        (0.25000000 0.25000000 0.25000000 0.25000000)
        (0.25000000 0.25000000 0.25000000 0.25000000)
        (0.25000000 0.25000000 0.25000000 0.25000000))));
}

potential (Activity | SpotDistribution MNode)
{
    data = (((0.13888889 0.86111111)
        (0.70000000 0.30000000)
        (0.25000000 0.75000000)
        (0.25000000 0.75000000)
        (0.50000000 0.50000000)
        (0.25000000 0.75000000))
        ((0.64236111 0.35763889)
        (0.65000000 0.35000000)
        (0.75000000 0.25000000)
        (0.75000000 0.25000000)
        (0.25000000 0.75000000)
        (0.50000000 0.50000000))
        ((0.89903846 0.10096154)
        (0.81250000 0.18750000)
        (0.75000000 0.25000000)
        (0.50000000 0.50000000)
        (0.50000000 0.50000000)
        (0.50000000 0.50000000))
        ((0.94575472 0.05424528)
        (0.75000000 0.25000000)
        (0.50000000 0.50000000)
        (0.50000000 0.50000000)
        (0.50000000 0.50000000)
        (0.50000000 0.50000000)));
}

potential (Evolution | SolarFlareType)
{
    data = ((0.12318841 0.34057971 0.53623188)
        (0.04460094 0.44600939 0.50938967)
        (0.04417671 0.30923695 0.64658635)
        (0.04444444 0.45777778 0.49777778)
        (0.08333333 0.69047619 0.22619048)
        (0.10015649 0.58841941 0.31142410));
}

potential (PrevStatus24Hour | Activity MNode)
{
    data = (((0.99536232 0.00231884 0.00231884)
        (0.96078431 0.01960784 0.01960784)
        (0.77777778 0.11111111 0.11111111)
        (0.66666667 0.16666667 0.16666667)
        (0.33333333 0.33333333 0.33333333)
        (0.33333333 0.33333333 0.33333333))
        ((0.81039755 0.07645260 0.11314985)
        (0.72222222 0.22222222 0.05555556)
        (0.16666667 0.16666667 0.66666667)
        (0.66666667 0.16666667 0.16666667)
        (0.66666667 0.16666667 0.16666667)
        (0.16666667 0.16666667 0.66666667)));
}

potential (HistComplex | SolarFlareType)
{
    data = ((0.85326087 0.14673913)
        (0.74295775 0.25704225)
        (0.46686747 0.53313253)
        (0.18000000 0.82000000)
        (0.05357143 0.94642857)
        (0.68779343 0.31220657));
}

potential (BecomeHist | SpotDistribution MNode)
{
    data = (((0.02777778 0.97222222)
        (0.10000000 0.90000000)
        (0.25000000 0.75000000)
        (0.25000000 0.75000000)
        (0.50000000 0.50000000)
        (0.25000000 0.75000000))
        ((0.00347222 0.99652778)
        (0.05000000 0.95000000)
        (0.25000000 0.75000000)
        (0.25000000 0.75000000)
        (0.25000000 0.75000000)
        (0.50000000 0.50000000))
        ((0.00160256 0.99839744)
        (0.06250000 0.93750000)
        (0.25000000 0.75000000)
        (0.50000000 0.50000000)
        (0.50000000 0.50000000)
        (0.50000000 0.50000000))
        ((0.43160377 0.56839623)
        (0.25000000 0.75000000)
        (0.50000000 0.50000000)
        (0.50000000 0.50000000)
        (0.50000000 0.50000000)
        (0.50000000 0.50000000)));
}
